<?xml version="1.0"?>
<opencv_storage>
<cascade>
  <stageType>BOOST</stageType>
  <featureType>HAAR</featureType>
  <height>24</height>
  <width>24</width>
  <stageParams>
    <boostType>GAB</boostType>
    <minHitRate>9.9500000476837158e-01</minHitRate>
    <maxFalseAlarm>5.0000000000000000e-01</maxFalseAlarm>
    <weightTrimRate>9.4999998807907104e-01</weightTrimRate>
    <maxDepth>1</maxDepth>
    <maxWeakCount>100</maxWeakCount></stageParams>
  <featureParams>
    <maxCatCount>0</maxCatCount>
    <featSize>1</featSize>
    <mode>BASIC</mode></featureParams>
  <stageNum>19</stageNum>
  <stages>
    <!-- stage 0 -->
    <_>
      <maxWeakCount>7</maxWeakCount>
      <stageThreshold>-1.5082460641860962e+00</stageThreshold>
      <weakClassifiers>
        <_>
          <internalNodes>
            0 -1 210 -4.8168852925300598e-02</internalNodes>
          <leafValues>
            5.7863503694534302e-01 -8.7366974353790283e-01</leafValues></_>
        <_>
          <internalNodes>
            0 -1 171 -2.0651010796427727e-02</internalNodes>
          <leafValues>
            7.9273849725723267e-01 -5.7337033748626709e-01</leafValues></_>
        <_>
          <internalNodes>
            0 -1 145 9.9833667278289795e-02</internalNodes>
          <leafValues>
            2.7186763286590576e-01 -9.1060107946395874e-01</leafValues></_>
        <_>
          <internalNodes>
            0 -1 13 5.0082679837942123e-02</internalNodes>
          <leafValues>
            -3.5179653763771057e-01 7.5304114818572998e-01</leafValues></_>
        <_>
          <internalNodes>
            0 -1 59 -9.0300619602203369e-02</internalNodes>
          <leafValues>
            7.4878185987472534e-01 -2.9392692446708679e-01</leafValues></_>
        <_>
          <internalNodes>
            0 -1 50 6.9844529032707214e-02</internalNodes>
          <leafValues>
            -3.1096488237380981e-01 6.9273442029953003e-01</leafValues></_>
        <_>
          <internalNodes>
            0 -1 7 -1.4049932360649109e-02</internalNodes>
          <leafValues>
            7.6337462663650513e-01 -2.4133120477199554e-01</leafValues></_></weakClassifiers></_>
    <!-- stage 1 -->
    <_>
      <maxWeakCount>7</maxWeakCount>
      <stageThreshold>-1.9691505432128906e+00</stageThreshold>
      <weakClassifiers>
        <_>
          <internalNodes>
            0 -1 96 -4.4551432132720947e-02</internalNodes>
          <leafValues>
            4.6745562553405762e-01 -8.6126375198364258e-01</leafValues></_>
        <_>
          <internalNodes>
            0 -1 90 9.4549670815467834e-02</internalNodes>
          <leafValues>
            -5.5261355638504028e-01 5.2171164751052856e-01</leafValues></_>
        <_>
          <internalNodes>
            0 -1 211 3.4585282206535339e-02</internalNodes>
          <leafValues>
            -3.8059005141258240e-01 8.2242441177368164e-01</leafValues></_>
        <_>
          <internalNodes>
            0 -1 204 -3.1945981085300446e-02</internalNodes>
          <leafValues>
            6.9379323720932007e-01 -1.8505431711673737e-01</leafValues></_>
        <_>
          <internalNodes>
            0 -1 89 1.8612274900078773e-02</internalNodes>
          <leafValues>
            -2.0023269951343536e-01 7.1968650817871094e-01</leafValues></_>
        <_>
          <internalNodes>
            0 -1 63 8.5000686347484589e-02</internalNodes>
          <leafValues>
            -3.3538421988487244e-01 5.5644685029983521e-01</leafValues></_>
        <_>
          <internalNodes>
            0 -1 124 7.1631581522524357e-03</internalNodes>
          <leafValues>
            -2.9152205586433411e-01 5.4598802328109741e-01</leafValues></_></weakClassifiers></_>
    <!-- stage 2 -->
    <_>
      <maxWeakCount>7</maxWeakCount>
      <stageThreshold>-1.7272380590438843e+00</stageThreshold>
      <weakClassifiers>
        <_>
          <internalNodes>
            0 -1 86 2.5569522380828857e-01</internalNodes>
          <leafValues>
            -8.7714070081710815e-01 1.0638297535479069e-02</leafValues></_>
        <_>
          <internalNodes>
            0 -1 34 7.7487297356128693e-02</internalNodes>
          <leafValues>
            -5.3434896469116211e-01 4.9822708964347839e-01</leafValues></_>
        <_>
          <internalNodes>
            0 -1 221 6.2782272696495056e-02</internalNodes>
          <leafValues>
            -3.2814252376556396e-01 7.7574414014816284e-01</leafValues></_>
        <_>
          <internalNodes>
            0 -1 207 -9.2953450977802277e-02</internalNodes>
          <leafValues>
            6.8507856130599976e-01 -2.5153923034667969e-01</leafValues></_>
        <_>
          <internalNodes>
            0 -1 61 -1.9392222166061401e-01</internalNodes>
          <leafValues>
            7.5680071115493774e-01 -2.3033565282821655e-01</leafValues></_>
        <_>
          <internalNodes>
            0 -1 95 -1.5388398896902800e-03</internalNodes>
          <leafValues>
            -6.0982984304428101e-01 2.8828099370002747e-01</leafValues></_>
        <_>
          <internalNodes>
            0 -1 103 -2.1380442194640636e-03</internalNodes>
          <leafValues>
            -7.6363611221313477e-01 2.0598810911178589e-01</leafValues></_></weakClassifiers></_>
    <!-- stage 3 -->
    <_>
      <maxWeakCount>9</maxWeakCount>
      <stageThreshold>-1.5563546419143677e+00</stageThreshold>
      <weakClassifiers>
        <_>
          <internalNodes>
            0 -1 80 -7.0364758372306824e-02</internalNodes>
          <leafValues>
            -7.1786306798458099e-02 -8.7023764848709106e-01</leafValues></_>
        <_>
          <internalNodes>
            0 -1 87 2.7279776334762573e-01</internalNodes>
          <leafValues>
            -5.3860288858413696e-01 3.9525154232978821e-01</leafValues></_>
        <_>
          <internalNodes>
            0 -1 66 5.3228698670864105e-02</internalNodes>
          <leafValues>
            -3.0636745691299438e-01 6.3891565799713135e-01</leafValues></_>
        <_>
          <internalNodes>
            0 -1 25 2.1615114808082581e-01</internalNodes>
          <leafValues>
            -2.5714763998985291e-01 5.7449066638946533e-01</leafValues></_>
        <_>
          <internalNodes>
            0 -1 219 4.5502282679080963e-02</internalNodes>
          <leafValues>
            -2.5258132815361023e-01 5.7061666250228882e-01</leafValues></_>
        <_>
          <internalNodes>
            0 -1 231 -1.1595663614571095e-02</internalNodes>
          <leafValues>
            5.1132547855377197e-01 -2.6941433548927307e-01</leafValues></_>
        <_>
          <internalNodes>
            0 -1 151 2.0822475198656321e-03</internalNodes>
          <leafValues>
            1.7568372189998627e-01 -7.2621339559555054e-01</leafValues></_>
        <_>
          <internalNodes>
            0 -1 156 6.1364900320768356e-03</internalNodes>
          <leafValues>
            -1.9805964827537537e-01 6.2517994642257690e-01</leafValues></_>
        <_>
          <internalNodes>
            0 -1 134 1.5152613632380962e-03</internalNodes>
          <leafValues>
            2.4989163875579834e-01 -5.4734313488006592e-01</leafValues></_></weakClassifiers></_>
    <!-- stage 4 -->
    <_>
      <maxWeakCount>10</maxWeakCount>
      <stageThreshold>-1.5149255990982056e+00</stageThreshold>
      <weakClassifiers>
        <_>
          <internalNodes>
            0 -1 144 2.4073874577879906e-02</internalNodes>
          <leafValues>
            -7.9927843809127808e-01 4.3283581733703613e-01</leafValues></_>
        <_>
          <internalNodes>
            0 -1 53 -6.6293915733695030e-03</internalNodes>
          <leafValues>
            4.9604812264442444e-01 -4.4033604860305786e-01</leafValues></_>
        <_>
          <internalNodes>
            0 -1 172 -1.0401565581560135e-02</internalNodes>
          <leafValues>
            6.0411894321441650e-01 -2.4939858913421631e-01</leafValues></_>
        <_>
          <internalNodes>
            0 -1 220 -6.8295061588287354e-02</internalNodes>
          <leafValues>
            5.5454409122467041e-01 -2.4085946381092072e-01</leafValues></_>
        <_>
          <internalNodes>
            0 -1 22 -5.3671278059482574e-02</internalNodes>
          <leafValues>
            6.5206545591354370e-01 -1.8977977335453033e-01</leafValues></_>
        <_>
          <internalNodes>
            0 -1 23 8.1028893589973450e-02</internalNodes>
          <leafValues>
            -2.9564708471298218e-01 4.9244827032089233e-01</leafValues></_>
        <_>
          <internalNodes>
            0 -1 3 3.1148728448897600e-03</internalNodes>
          <leafValues>
            2.4148225784301758e-01 -6.0660624504089355e-01</leafValues></_>
        <_>
          <internalNodes>
            0 -1 234 -5.7729333639144897e-03</internalNodes>
          <leafValues>
            6.6055953502655029e-01 -1.7304258048534393e-01</leafValues></_>
        <_>
          <internalNodes>
            0 -1 2 -1.1109494371339679e-03</internalNodes>
          <leafValues>
            -5.2997529506683350e-01 2.4242790043354034e-01</leafValues></_>
        <_>
          <internalNodes>
            0 -1 117 3.5358821041882038e-03</internalNodes>
          <leafValues>
            -3.1388169527053833e-01 3.9574953913688660e-01</leafValues></_></weakClassifiers></_>
    <!-- stage 5 -->
    <_>
      <maxWeakCount>9</maxWeakCount>
      <stageThreshold>-1.6365542411804199e+00</stageThreshold>
      <weakClassifiers>
        <_>
          <internalNodes>
            0 -1 72 1.3773813843727112e-01</internalNodes>
          <leafValues>
            -8.6093455553054810e-01 -8.1739127635955811e-02</leafValues></_>
        <_>
          <internalNodes>
            0 -1 179 -6.6526560112833977e-03</internalNodes>
          <leafValues>
            3.4977152943611145e-01 -4.8560911417007446e-01</leafValues></_>
        <_>
          <internalNodes>
            0 -1 71 -1.0613824427127838e-01</internalNodes>
          <leafValues>
            7.4431401491165161e-01 -2.4988926947116852e-01</leafValues></_>
        <_>
          <internalNodes>
            0 -1 85 3.1086701154708862e-01</internalNodes>
          <leafValues>
            -2.6004141569137573e-01 4.7481876611709595e-01</leafValues></_>
        <_>
          <internalNodes>
            0 -1 10 -1.6693860292434692e-01</internalNodes>
          <leafValues>
            6.5953469276428223e-01 -1.9354242086410522e-01</leafValues></_>
        <_>
          <internalNodes>
            0 -1 78 1.2161487713456154e-02</internalNodes>
          <leafValues>
            -2.7843108773231506e-01 4.4079396128654480e-01</leafValues></_>
        <_>
          <internalNodes>
            0 -1 236 -9.6112885512411594e-04</internalNodes>
          <leafValues>
            -7.4565672874450684e-01 1.5108582377433777e-01</leafValues></_>
        <_>
          <internalNodes>
            0 -1 189 -1.4998603146523237e-03</internalNodes>
          <leafValues>
            -6.5370750427246094e-01 1.7338182032108307e-01</leafValues></_>
        <_>
          <internalNodes>
            0 -1 192 -4.1071530431509018e-03</internalNodes>
          <leafValues>
            5.3655630350112915e-01 -1.8991672992706299e-01</leafValues></_></weakClassifiers></_>
    <!-- stage 6 -->
    <_>
      <maxWeakCount>10</maxWeakCount>
      <stageThreshold>-1.6636471748352051e+00</stageThreshold>
      <weakClassifiers>
        <_>
          <internalNodes>
            0 -1 110 3.9530519396066666e-02</internalNodes>
          <leafValues>
            -8.0786025524139404e-01 2.0146520435810089e-01</leafValues></_>
        <_>
          <internalNodes>
            0 -1 208 -5.9960301965475082e-02</internalNodes>
          <leafValues>
            2.4786438047885895e-01 -4.9520292878150940e-01</leafValues></_>
        <_>
          <internalNodes>
            0 -1 48 -4.8978248238563538e-01</internalNodes>
          <leafValues>
            7.8235810995101929e-01 -2.0989954471588135e-01</leafValues></_>
        <_>
          <internalNodes>
            0 -1 236 5.1957240793853998e-04</internalNodes>
          <leafValues>
            2.3537103831768036e-01 -6.3948994874954224e-01</leafValues></_>
        <_>
          <internalNodes>
            0 -1 99 1.7284210026264191e-01</internalNodes>
          <leafValues>
            -2.7253502607345581e-01 4.3777462840080261e-01</leafValues></_>
        <_>
          <internalNodes>
            0 -1 226 2.5452800095081329e-02</internalNodes>
          <leafValues>
            -1.5872250497341156e-01 5.5699503421783447e-01</leafValues></_>
        <_>
          <internalNodes>
            0 -1 12 2.8306428343057632e-02</internalNodes>
          <leafValues>
            -2.4357518553733826e-01 4.6535453200340271e-01</leafValues></_>
        <_>
          <internalNodes>
            0 -1 155 1.0975163429975510e-02</internalNodes>
          <leafValues>
            -1.8194292485713959e-01 5.6391519308090210e-01</leafValues></_>
        <_>
          <internalNodes>
            0 -1 184 6.8481303751468658e-03</internalNodes>
          <leafValues>
            -1.5598624944686890e-01 6.2617254257202148e-01</leafValues></_>
        <_>
          <internalNodes>
            0 -1 49 -1.5648686094209552e-03</internalNodes>
          <leafValues>
            -8.9851969480514526e-01 1.2649837136268616e-01</leafValues></_></weakClassifiers></_>
    <!-- stage 7 -->
    <_>
      <maxWeakCount>14</maxWeakCount>
      <stageThreshold>-1.8158251047134399e+00</stageThreshold>
      <weakClassifiers>
        <_>
          <internalNodes>
            0 -1 62 7.2883650660514832e-02</internalNodes>
          <leafValues>
            -8.0389523506164551e-01 1.6176471114158630e-01</leafValues></_>
        <_>
          <internalNodes>
            0 -1 112 -1.2365125119686127e-02</internalNodes>
          <leafValues>
            3.9026507735252380e-01 -4.3302205204963684e-01</leafValues></_>
        <_>
          <internalNodes>
            0 -1 123 -3.7951003760099411e-03</internalNodes>
          <leafValues>
            -8.2619428634643555e-01 1.2754872441291809e-01</leafValues></_>
        <_>
          <internalNodes>
            0 -1 70 -2.1210481226444244e-01</internalNodes>
          <leafValues>
            6.5648442506790161e-01 -1.7241893708705902e-01</leafValues></_>
        <_>
          <internalNodes>
            0 -1 185 3.4701816737651825e-02</internalNodes>
          <leafValues>
            -3.1990483403205872e-01 4.2910933494567871e-01</leafValues></_>
        <_>
          <internalNodes>
            0 -1 40 -2.2346170619130135e-02</internalNodes>
          <leafValues>
            5.0964093208312988e-01 -1.8228054046630859e-01</leafValues></_>
        <_>
          <internalNodes>
            0 -1 127 2.0569026470184326e-01</internalNodes>
          <leafValues>
            -1.9243210554122925e-01 5.1893413066864014e-01</leafValues></_>
        <_>
          <internalNodes>
            0 -1 142 -1.3397539965808392e-02</internalNodes>
          <leafValues>
            6.0161709785461426e-01 -1.7037399113178253e-01</leafValues></_>
        <_>
          <internalNodes>
            0 -1 111 -2.0682096946984529e-03</internalNodes>
          <leafValues>
            -7.5558745861053467e-01 1.3224327564239502e-01</leafValues></_>
        <_>
          <internalNodes>
            0 -1 160 7.7377166599035263e-03</internalNodes>
          <leafValues>
            -2.2253623604774475e-01 4.6823412179946899e-01</leafValues></_>
        <_>
          <internalNodes>
            0 -1 4 3.1487999949604273e-03</internalNodes>
          <leafValues>
            1.5196290612220764e-01 -6.0379916429519653e-01</leafValues></_>
        <_>
          <internalNodes>
            0 -1 115 -1.1193526908755302e-02</internalNodes>
          <leafValues>
            -7.8843563795089722e-01 9.6845276653766632e-02</leafValues></_>
        <_>
          <internalNodes>
            0 -1 232 1.7310917377471924e-02</internalNodes>
          <leafValues>
            -1.5308855473995209e-01 5.9876120090484619e-01</leafValues></_>
        <_>
          <internalNodes>
            0 -1 77 7.2365431115031242e-03</internalNodes>
          <leafValues>
            -2.8634938597679138e-01 3.3227503299713135e-01</leafValues></_></weakClassifiers></_>
    <!-- stage 8 -->
    <_>
      <maxWeakCount>16</maxWeakCount>
      <stageThreshold>-2.0937857627868652e+00</stageThreshold>
      <weakClassifiers>
        <_>
          <internalNodes>
            0 -1 242 3.5077229142189026e-02</internalNodes>
          <leafValues>
            -8.0101525783538818e-01 5.7627119123935699e-02</leafValues></_>
        <_>
          <internalNodes>
            0 -1 16 1.0324351489543915e-01</internalNodes>
          <leafValues>
            -4.8489576578140259e-01 2.0099818706512451e-01</leafValues></_>
        <_>
          <internalNodes>
            0 -1 81 2.7290210127830505e-02</internalNodes>
          <leafValues>
            -2.3246620595455170e-01 6.6238152980804443e-01</leafValues></_>
        <_>
          <internalNodes>
            0 -1 205 -1.3577300310134888e-01</internalNodes>
          <leafValues>
            5.0827884674072266e-01 -2.6401856541633606e-01</leafValues></_>
        <_>
          <internalNodes>
            0 -1 113 -6.0160588473081589e-02</internalNodes>
          <leafValues>
            6.8073946237564087e-01 -1.3790012896060944e-01</leafValues></_>
        <_>
          <internalNodes>
            0 -1 60 2.2558954358100891e-01</internalNodes>
          <leafValues>
            -2.2197540104389191e-01 4.5684036612510681e-01</leafValues></_>
        <_>
          <internalNodes>
            0 -1 164 1.8258097115904093e-03</internalNodes>
          <leafValues>
            1.5492621064186096e-01 -6.1225396394729614e-01</leafValues></_>
        <_>
          <internalNodes>
            0 -1 252 -1.0271010920405388e-02</internalNodes>
          <leafValues>
            -5.8754056692123413e-01 1.7243912816047668e-01</leafValues></_>
        <_>
          <internalNodes>
            0 -1 252 1.2044359929859638e-02</internalNodes>
          <leafValues>
            1.8518495559692383e-01 -5.4400599002838135e-01</leafValues></_>
        <_>
          <internalNodes>
            0 -1 212 2.8310981579124928e-03</internalNodes>
          <leafValues>
            -1.6283527016639709e-01 5.9497809410095215e-01</leafValues></_>
        <_>
          <internalNodes>
            0 -1 11 8.4148067981004715e-03</internalNodes>
          <leafValues>
            1.5276616811752319e-01 -6.2134057283401489e-01</leafValues></_>
        <_>
          <internalNodes>
            0 -1 88 9.8321397672407329e-06</internalNodes>
          <leafValues>
            -4.1104158759117126e-01 2.0928822457790375e-01</leafValues></_>
        <_>
          <internalNodes>
            0 -1 24 -2.0384691655635834e-02</internalNodes>
          <leafValues>
            6.2612551450729370e-01 -1.4374190568923950e-01</leafValues></_>
        <_>
          <internalNodes>
            0 -1 137 -3.4200154244899750e-02</internalNodes>
          <leafValues>
            3.2893896102905273e-01 -3.0352115631103516e-01</leafValues></_>
        <_>
          <internalNodes>
            0 -1 146 8.8052666978910565e-04</internalNodes>
          <leafValues>
            -1.9990050792694092e-01 4.1341474652290344e-01</leafValues></_>
        <_>
          <internalNodes>
            0 -1 104 3.9299805648624897e-03</internalNodes>
          <leafValues>
            1.1554114520549774e-01 -7.9161345958709717e-01</leafValues></_></weakClassifiers></_>
    <!-- stage 9 -->
    <_>
      <maxWeakCount>15</maxWeakCount>
      <stageThreshold>-1.8735111951828003e+00</stageThreshold>
      <weakClassifiers>
        <_>
          <internalNodes>
            0 -1 230 3.3230535686016083e-02</internalNodes>
          <leafValues>
            -7.8933423757553101e-01 1.4285714924335480e-01</leafValues></_>
        <_>
          <internalNodes>
            0 -1 162 3.3578975126147270e-03</internalNodes>
          <leafValues>
            -3.9429304003715515e-01 3.0742570757865906e-01</leafValues></_>
        <_>
          <internalNodes>
            0 -1 176 5.0058428198099136e-02</internalNodes>
          <leafValues>
            -1.6149708628654480e-01 7.1314400434494019e-01</leafValues></_>
        <_>
          <internalNodes>
            0 -1 18 1.3697436451911926e-01</internalNodes>
          <leafValues>
            -3.0010634660720825e-01 3.6451092362403870e-01</leafValues></_>
        <_>
          <internalNodes>
            0 -1 104 -2.4800314567983150e-03</internalNodes>
          <leafValues>
            -6.3034886121749878e-01 1.4465242624282837e-01</leafValues></_>
        <_>
          <internalNodes>
            0 -1 183 4.2985882610082626e-03</internalNodes>
          <leafValues>
            -1.2892833352088928e-01 5.8809089660644531e-01</leafValues></_>
        <_>
          <internalNodes>
            0 -1 250 8.1190634518861771e-03</internalNodes>
          <leafValues>
            1.4757035672664642e-01 -6.4273285865783691e-01</leafValues></_>
        <_>
          <internalNodes>
            0 -1 203 1.7931107431650162e-03</internalNodes>
          <leafValues>
            -2.1869364380836487e-01 3.9737954735755920e-01</leafValues></_>
        <_>
          <internalNodes>
            0 -1 42 -2.5901170447468758e-03</internalNodes>
          <leafValues>
            -6.1928755044937134e-01 1.3436438143253326e-01</leafValues></_>
        <_>
          <internalNodes>
            0 -1 186 -1.1071410262957215e-03</internalNodes>
          <leafValues>
            4.1153833270072937e-01 -1.8063358962535858e-01</leafValues></_>
        <_>
          <internalNodes>
            0 -1 168 6.6955666989088058e-03</internalNodes>
          <leafValues>
            1.2334886193275452e-01 -6.5708237886428833e-01</leafValues></_>
        <_>
          <internalNodes>
            0 -1 163 2.0093484781682491e-03</internalNodes>
          <leafValues>
            9.9722109735012054e-02 -6.9759142398834229e-01</leafValues></_>
        <_>
          <internalNodes>
            0 -1 147 3.2934877090156078e-03</internalNodes>
          <leafValues>
            -1.8029008805751801e-01 4.5525774359703064e-01</leafValues></_>
        <_>
          <internalNodes>
            0 -1 253 1.1657327413558960e-03</internalNodes>
          <leafValues>
            1.2816375494003296e-01 -5.8895581960678101e-01</leafValues></_>
        <_>
          <internalNodes>
            0 -1 140 6.7198541946709156e-03</internalNodes>
          <leafValues>
            -1.3862866163253784e-01 5.6311410665512085e-01</leafValues></_></weakClassifiers></_>
    <!-- stage 10 -->
    <_>
      <maxWeakCount>17</maxWeakCount>
      <stageThreshold>-1.8202458620071411e+00</stageThreshold>
      <weakClassifiers>
        <_>
          <internalNodes>
            0 -1 159 1.5540913678705692e-02</internalNodes>
          <leafValues>
            -7.7683800458908081e-01 2.1590909361839294e-01</leafValues></_>
        <_>
          <internalNodes>
            0 -1 224 -1.5146491117775440e-02</internalNodes>
          <leafValues>
            3.1653091311454773e-01 -4.3508636951446533e-01</leafValues></_>
        <_>
          <internalNodes>
            0 -1 225 1.2970142066478729e-02</internalNodes>
          <leafValues>
            -2.4874506890773773e-01 4.7559562325477600e-01</leafValues></_>
        <_>
          <internalNodes>
            0 -1 91 1.8931420147418976e-01</internalNodes>
          <leafValues>
            -2.9734286665916443e-01 4.0467798709869385e-01</leafValues></_>
        <_>
          <internalNodes>
            0 -1 98 -1.6774567961692810e-01</internalNodes>
          <leafValues>
            6.8570780754089355e-01 -1.6808575391769409e-01</leafValues></_>
        <_>
          <internalNodes>
            0 -1 55 4.2125703766942024e-03</internalNodes>
          <leafValues>
            -2.3465378582477570e-01 4.3184846639633179e-01</leafValues></_>
        <_>
          <internalNodes>
            0 -1 44 -3.7789054214954376e-02</internalNodes>
          <leafValues>
            7.0243161916732788e-01 -1.0457317531108856e-01</leafValues></_>
        <_>
          <internalNodes>
            0 -1 8 3.6166518926620483e-01</internalNodes>
          <leafValues>
            -2.3247881233692169e-01 4.2640528082847595e-01</leafValues></_>
        <_>
          <internalNodes>
            0 -1 194 1.2234665919095278e-03</internalNodes>
          <leafValues>
            -1.3373430073261261e-01 5.5419093370437622e-01</leafValues></_>
        <_>
          <internalNodes>
            0 -1 139 -1.6807526350021362e-02</internalNodes>
          <leafValues>
            4.6358385682106018e-01 -1.5676712989807129e-01</leafValues></_>
        <_>
          <internalNodes>
            0 -1 116 -2.5675911456346512e-02</internalNodes>
          <leafValues>
            5.6325417757034302e-01 -1.5294636785984039e-01</leafValues></_>
        <_>
          <internalNodes>
            0 -1 29 5.0804386846721172e-03</internalNodes>
          <leafValues>
            -3.0870434641838074e-01 2.9090827703475952e-01</leafValues></_>
        <_>
          <internalNodes>
            0 -1 32 9.5861656591296196e-03</internalNodes>
          <leafValues>
            1.4608113467693329e-01 -6.2312126159667969e-01</leafValues></_>
        <_>
          <internalNodes>
            0 -1 94 2.8841264545917511e-02</internalNodes>
          <leafValues>
            -2.1324715018272400e-01 3.8795253634452820e-01</leafValues></_>
        <_>
          <internalNodes>
            0 -1 15 -7.0670237764716148e-03</internalNodes>
          <leafValues>
            6.0399740934371948e-01 -1.3457271456718445e-01</leafValues></_>
        <_>
          <internalNodes>
            0 -1 0 8.9971851557493210e-03</internalNodes>
          <leafValues>
            1.3678765296936035e-01 -6.5506207942962646e-01</leafValues></_>
        <_>
          <internalNodes>
            0 -1 26 2.1983431652188301e-03</internalNodes>
          <leafValues>
            -3.2987809181213379e-01 2.7340805530548096e-01</leafValues></_></weakClassifiers></_>
    <!-- stage 11 -->
    <_>
      <maxWeakCount>16</maxWeakCount>
      <stageThreshold>-1.8427840471267700e+00</stageThreshold>
      <weakClassifiers>
        <_>
          <internalNodes>
            0 -1 118 4.4017136096954346e-02</internalNodes>
          <leafValues>
            -7.9194629192352295e-01 3.7037037312984467e-02</leafValues></_>
        <_>
          <internalNodes>
            0 -1 67 1.0266679525375366e-01</internalNodes>
          <leafValues>
            -4.2122858762741089e-01 2.2800663113594055e-01</leafValues></_>
        <_>
          <internalNodes>
            0 -1 62 -6.4818240702152252e-02</internalNodes>
          <leafValues>
            7.5748616456985474e-01 -1.3946180045604706e-01</leafValues></_>
        <_>
          <internalNodes>
            0 -1 149 2.2916498128324747e-03</internalNodes>
          <leafValues>
            1.3302752375602722e-01 -7.7659279108047485e-01</leafValues></_>
        <_>
          <internalNodes>
            0 -1 229 3.2047703862190247e-03</internalNodes>
          <leafValues>
            -1.9161511957645416e-01 4.1660913825035095e-01</leafValues></_>
        <_>
          <internalNodes>
            0 -1 126 -1.5631737187504768e-02</internalNodes>
          <leafValues>
            4.3191045522689819e-01 -2.0389586687088013e-01</leafValues></_>
        <_>
          <internalNodes>
            0 -1 228 -9.2544250946957618e-06</internalNodes>
          <leafValues>
            2.0661534368991852e-01 -3.4131142497062683e-01</leafValues></_>
        <_>
          <internalNodes>
            0 -1 206 1.5633368492126465e-01</internalNodes>
          <leafValues>
            -1.5950879454612732e-01 6.4429008960723877e-01</leafValues></_>
        <_>
          <internalNodes>
            0 -1 239 -3.9517497643828392e-03</internalNodes>
          <leafValues>
            3.5593357682228088e-01 -2.0783859491348267e-01</leafValues></_>
        <_>
          <internalNodes>
            0 -1 45 -1.2203167425468564e-03</internalNodes>
          <leafValues>
            -6.4419263601303101e-01 1.5648426115512848e-01</leafValues></_>
        <_>
          <internalNodes>
            0 -1 54 2.2880709730088711e-03</internalNodes>
          <leafValues>
            1.0376264899969101e-01 -6.2720084190368652e-01</leafValues></_>
        <_>
          <internalNodes>
            0 -1 255 1.0927515104413033e-02</internalNodes>
          <leafValues>
            1.0045769810676575e-01 -6.2463527917861938e-01</leafValues></_>
        <_>
          <internalNodes>
            0 -1 5 6.3693430274724960e-03</internalNodes>
          <leafValues>
            8.7956920266151428e-02 -6.6268783807754517e-01</leafValues></_>
        <_>
          <internalNodes>
            0 -1 181 7.1534947492182255e-03</internalNodes>
          <leafValues>
            -1.5777496993541718e-01 4.3369561433792114e-01</leafValues></_>
        <_>
          <internalNodes>
            0 -1 246 1.7525814473628998e-02</internalNodes>
          <leafValues>
            -1.4262194931507111e-01 5.1401531696319580e-01</leafValues></_>
        <_>
          <internalNodes>
            0 -1 33 1.8061995506286621e-02</internalNodes>
          <leafValues>
            -2.1519640088081360e-01 3.6664155125617981e-01</leafValues></_></weakClassifiers></_>
    <!-- stage 12 -->
    <_>
      <maxWeakCount>16</maxWeakCount>
      <stageThreshold>-1.8360662460327148e+00</stageThreshold>
      <weakClassifiers>
        <_>
          <internalNodes>
            0 -1 235 3.8763366639614105e-02</internalNodes>
          <leafValues>
            -8.1652712821960449e-01 -2.1272365748882294e-01</leafValues></_>
        <_>
          <internalNodes>
            0 -1 58 1.1597666144371033e-01</internalNodes>
          <leafValues>
            -3.9287886023521423e-01 2.9222536087036133e-01</leafValues></_>
        <_>
          <internalNodes>
            0 -1 35 -3.5417590290307999e-02</internalNodes>
          <leafValues>
            6.3067841529846191e-01 -1.6162770986557007e-01</leafValues></_>
        <_>
          <internalNodes>
            0 -1 68 6.4147384837269783e-03</internalNodes>
          <leafValues>
            -1.8649129569530487e-01 3.8087776303291321e-01</leafValues></_>
        <_>
          <internalNodes>
            0 -1 248 -6.8351523950695992e-03</internalNodes>
          <leafValues>
            -8.3183223009109497e-01 8.6868606507778168e-02</leafValues></_>
        <_>
          <internalNodes>
            0 -1 217 -8.2841170951724052e-03</internalNodes>
          <leafValues>
            4.3781477212905884e-01 -1.5705932676792145e-01</leafValues></_>
        <_>
          <internalNodes>
            0 -1 251 1.2015468440949917e-02</internalNodes>
          <leafValues>
            1.0195524990558624e-01 -7.0192974805831909e-01</leafValues></_>
        <_>
          <internalNodes>
            0 -1 209 4.4694673269987106e-03</internalNodes>
          <leafValues>
            -1.5690761804580688e-01 4.5368382334709167e-01</leafValues></_>
        <_>
          <internalNodes>
            0 -1 227 -3.9187308400869370e-02</internalNodes>
          <leafValues>
            5.8605086803436279e-01 -1.2308066338300705e-01</leafValues></_>
        <_>
          <internalNodes>
            0 -1 17 9.5717221498489380e-02</internalNodes>
          <leafValues>
            -2.9129359126091003e-01 3.0184730887413025e-01</leafValues></_>
        <_>
          <internalNodes>
            0 -1 106 -2.5371983647346497e-02</internalNodes>
          <leafValues>
            4.9253144860267639e-01 -1.6874931752681732e-01</leafValues></_>
        <_>
          <internalNodes>
            0 -1 165 -4.3401926755905151e-02</internalNodes>
          <leafValues>
            3.5746893286705017e-01 -2.3818156123161316e-01</leafValues></_>
        <_>
          <internalNodes>
            0 -1 256 -2.6180243585258722e-03</internalNodes>
          <leafValues>
            -7.3888283967971802e-01 9.9356986582279205e-02</leafValues></_>
        <_>
          <internalNodes>
            0 -1 187 -2.2816671989858150e-03</internalNodes>
          <leafValues>
            4.9573099613189697e-01 -1.6951051354408264e-01</leafValues></_>
        <_>
          <internalNodes>
            0 -1 214 3.8298091385513544e-03</internalNodes>
          <leafValues>
            -1.5320348739624023e-01 4.2623096704483032e-01</leafValues></_>
        <_>
          <internalNodes>
            0 -1 120 3.4624789841473103e-03</internalNodes>
          <leafValues>
            7.7183201909065247e-02 -8.7493109703063965e-01</leafValues></_></weakClassifiers></_>
    <!-- stage 13 -->
    <_>
      <maxWeakCount>17</maxWeakCount>
      <stageThreshold>-1.8587610721588135e+00</stageThreshold>
      <weakClassifiers>
        <_>
          <internalNodes>
            0 -1 131 1.3224082067608833e-02</internalNodes>
          <leafValues>
            -7.7939713001251221e-01 1.2987012974917889e-02</leafValues></_>
        <_>
          <internalNodes>
            0 -1 121 -3.1350054778158665e-03</internalNodes>
          <leafValues>
            1.3048359751701355e-01 -4.5567360520362854e-01</leafValues></_>
        <_>
          <internalNodes>
            0 -1 200 3.8788404315710068e-02</internalNodes>
          <leafValues>
            -1.4350977540016174e-01 6.5595513582229614e-01</leafValues></_>
        <_>
          <internalNodes>
            0 -1 247 -5.6971581652760506e-03</internalNodes>
          <leafValues>
            4.4114747643470764e-01 -1.9285520911216736e-01</leafValues></_>
        <_>
          <internalNodes>
            0 -1 28 -1.7158299684524536e-02</internalNodes>
          <leafValues>
            -7.5638610124588013e-01 1.0418774187564850e-01</leafValues></_>
        <_>
          <internalNodes>
            0 -1 141 -6.2049217522144318e-03</internalNodes>
          <leafValues>
            3.7709358334541321e-01 -2.0272921025753021e-01</leafValues></_>
        <_>
          <internalNodes>
            0 -1 1 -2.2750678472220898e-03</internalNodes>
          <leafValues>
            -5.9046959877014160e-01 1.1207884550094604e-01</leafValues></_>
        <_>
          <internalNodes>
            0 -1 51 3.0730173457413912e-03</internalNodes>
          <leafValues>
            -2.6386100053787231e-01 2.5964894890785217e-01</leafValues></_>
        <_>
          <internalNodes>
            0 -1 241 3.2760005444288254e-02</internalNodes>
          <leafValues>
            -1.4949065446853638e-01 6.2817221879959106e-01</leafValues></_>
        <_>
          <internalNodes>
            0 -1 82 -1.3806011527776718e-02</internalNodes>
          <leafValues>
            4.1246691346168518e-01 -1.7129240930080414e-01</leafValues></_>
        <_>
          <internalNodes>
            0 -1 57 9.0675649698823690e-04</internalNodes>
          <leafValues>
            1.6021928191184998e-01 -5.3894746303558350e-01</leafValues></_>
        <_>
          <internalNodes>
            0 -1 138 -1.2158548925071955e-03</internalNodes>
          <leafValues>
            3.0570399761199951e-01 -2.1819613873958588e-01</leafValues></_>
        <_>
          <internalNodes>
            0 -1 190 2.5023291818797588e-03</internalNodes>
          <leafValues>
            1.2188225984573364e-01 -6.2140011787414551e-01</leafValues></_>
        <_>
          <internalNodes>
            0 -1 170 -1.3118756935000420e-02</internalNodes>
          <leafValues>
            5.0210046768188477e-01 -1.6428934037685394e-01</leafValues></_>
        <_>
          <internalNodes>
            0 -1 182 9.2287454754114151e-04</internalNodes>
          <leafValues>
            -2.3060792684555054e-01 2.9887017607688904e-01</leafValues></_>
        <_>
          <internalNodes>
            0 -1 75 -4.3846503831446171e-03</internalNodes>
          <leafValues>
            -7.5423437356948853e-01 9.4031408429145813e-02</leafValues></_>
        <_>
          <internalNodes>
            0 -1 83 -8.7489169090986252e-03</internalNodes>
          <leafValues>
            -6.1956518888473511e-01 9.5736138522624969e-02</leafValues></_></weakClassifiers></_>
    <!-- stage 14 -->
    <_>
      <maxWeakCount>18</maxWeakCount>
      <stageThreshold>-1.7918626070022583e+00</stageThreshold>
      <weakClassifiers>
        <_>
          <internalNodes>
            0 -1 238 1.2944858521223068e-02</internalNodes>
          <leafValues>
            -7.8243243694305420e-01 -1.1724138259887695e-01</leafValues></_>
        <_>
          <internalNodes>
            0 -1 122 -3.4691793844103813e-03</internalNodes>
          <leafValues>
            9.1092638671398163e-02 -4.5102128386497498e-01</leafValues></_>
        <_>
          <internalNodes>
            0 -1 69 -2.0783296227455139e-01</internalNodes>
          <leafValues>
            6.4360415935516357e-01 -1.4264221489429474e-01</leafValues></_>
        <_>
          <internalNodes>
            0 -1 92 1.7691482603549957e-01</internalNodes>
          <leafValues>
            -2.5901940464973450e-01 3.1001669168472290e-01</leafValues></_>
        <_>
          <internalNodes>
            0 -1 102 1.6308527439832687e-02</internalNodes>
          <leafValues>
            1.5445503592491150e-01 -4.6076145768165588e-01</leafValues></_>
        <_>
          <internalNodes>
            0 -1 105 5.3001851774752140e-03</internalNodes>
          <leafValues>
            -8.9309290051460266e-02 5.6663554906845093e-01</leafValues></_>
        <_>
          <internalNodes>
            0 -1 56 -1.4187148772180080e-03</internalNodes>
          <leafValues>
            3.0565840005874634e-01 -2.6700848340988159e-01</leafValues></_>
        <_>
          <internalNodes>
            0 -1 47 1.7736902460455894e-02</internalNodes>
          <leafValues>
            1.2057235091924667e-01 -6.6465574502944946e-01</leafValues></_>
        <_>
          <internalNodes>
            0 -1 36 1.0948680341243744e-02</internalNodes>
          <leafValues>
            9.1910034418106079e-02 -6.4875930547714233e-01</leafValues></_>
        <_>
          <internalNodes>
            0 -1 30 -1.5238110907375813e-02</internalNodes>
          <leafValues>
            -6.2490177154541016e-01 8.4026575088500977e-02</leafValues></_>
        <_>
          <internalNodes>
            0 -1 167 -1.1527081951498985e-03</internalNodes>
          <leafValues>
            4.2423421144485474e-01 -1.6257071495056152e-01</leafValues></_>
        <_>
          <internalNodes>
            0 -1 202 -7.4231540784239769e-03</internalNodes>
          <leafValues>
            4.7142735123634338e-01 -1.3718515634536743e-01</leafValues></_>
        <_>
          <internalNodes>
            0 -1 144 1.2881653383374214e-02</internalNodes>
          <leafValues>
            -1.3317315280437469e-01 4.1653335094451904e-01</leafValues></_>
        <_>
          <internalNodes>
            0 -1 214 -7.2836987674236298e-03</internalNodes>
          <leafValues>
            5.3015649318695068e-01 -1.2340971082448959e-01</leafValues></_>
        <_>
          <internalNodes>
            0 -1 9 1.8062795698642731e-01</internalNodes>
          <leafValues>
            -2.1101376414299011e-01 2.9500353336334229e-01</leafValues></_>
        <_>
          <internalNodes>
            0 -1 19 -2.0697293803095818e-02</internalNodes>
          <leafValues>
            5.5658090114593506e-01 -1.3894250988960266e-01</leafValues></_>
        <_>
          <internalNodes>
            0 -1 31 2.0336769521236420e-02</internalNodes>
          <leafValues>
            -2.3748862743377686e-01 3.0397605895996094e-01</leafValues></_>
        <_>
          <internalNodes>
            0 -1 198 1.7640648409724236e-02</internalNodes>
          <leafValues>
            -1.4011363685131073e-01 4.6050330996513367e-01</leafValues></_></weakClassifiers></_>
    <!-- stage 15 -->
    <_>
      <maxWeakCount>19</maxWeakCount>
      <stageThreshold>-1.7133878469467163e+00</stageThreshold>
      <weakClassifiers>
        <_>
          <internalNodes>
            0 -1 175 7.0650824345648289e-03</internalNodes>
          <leafValues>
            -7.7192980051040649e-01 1.5116278827190399e-01</leafValues></_>
        <_>
          <internalNodes>
            0 -1 196 -1.4388892799615860e-02</internalNodes>
          <leafValues>
            2.3828032612800598e-01 -4.2743143439292908e-01</leafValues></_>
        <_>
          <internalNodes>
            0 -1 150 -4.6941116452217102e-03</internalNodes>
          <leafValues>
            -6.8813896179199219e-01 9.5229305326938629e-02</leafValues></_>
        <_>
          <internalNodes>
            0 -1 215 -2.6357090100646019e-02</internalNodes>
          <leafValues>
            5.2749693393707275e-01 -1.2203409522771835e-01</leafValues></_>
        <_>
          <internalNodes>
            0 -1 213 -4.3074819259345531e-03</internalNodes>
          <leafValues>
            3.7825292348861694e-01 -1.8799486756324768e-01</leafValues></_>
        <_>
          <internalNodes>
            0 -1 199 -6.9633200764656067e-02</internalNodes>
          <leafValues>
            -6.4964532852172852e-01 1.2191312015056610e-01</leafValues></_>
        <_>
          <internalNodes>
            0 -1 125 -2.3570403456687927e-02</internalNodes>
          <leafValues>
            6.3751608133316040e-01 -1.2222579121589661e-01</leafValues></_>
        <_>
          <internalNodes>
            0 -1 79 1.6674764454364777e-02</internalNodes>
          <leafValues>
            -2.1148629486560822e-01 3.4420320391654968e-01</leafValues></_>
        <_>
          <internalNodes>
            0 -1 132 2.9892977327108383e-03</internalNodes>
          <leafValues>
            -1.1242199689149857e-01 5.6076020002365112e-01</leafValues></_>
        <_>
          <internalNodes>
            0 -1 43 4.7051705769263208e-04</internalNodes>
          <leafValues>
            1.4122548699378967e-01 -4.6278661489486694e-01</leafValues></_>
        <_>
          <internalNodes>
            0 -1 245 5.4498173994943500e-04</internalNodes>
          <leafValues>
            -1.4947476983070374e-01 4.7452509403228760e-01</leafValues></_>
        <_>
          <internalNodes>
            0 -1 39 3.2249973155558109e-03</internalNodes>
          <leafValues>
            -2.4681232869625092e-01 2.7018049359321594e-01</leafValues></_>
        <_>
          <internalNodes>
            0 -1 14 -7.5761228799819946e-02</internalNodes>
          <leafValues>
            5.6695663928985596e-01 -1.1863571405410767e-01</leafValues></_>
        <_>
          <internalNodes>
            0 -1 108 1.4673709869384766e-01</internalNodes>
          <leafValues>
            -3.2802489399909973e-01 2.3485457897186279e-01</leafValues></_>
        <_>
          <internalNodes>
            0 -1 169 9.1336086392402649e-02</internalNodes>
          <leafValues>
            1.0285343229770660e-01 -6.7000043392181396e-01</leafValues></_>
        <_>
          <internalNodes>
            0 -1 109 6.8384362384676933e-03</internalNodes>
          <leafValues>
            -1.7507216334342957e-01 3.6122483015060425e-01</leafValues></_>
        <_>
          <internalNodes>
            0 -1 243 9.6767867216840386e-04</internalNodes>
          <leafValues>
            8.2514852285385132e-02 -7.8701317310333252e-01</leafValues></_>
        <_>
          <internalNodes>
            0 -1 148 -5.9532886371016502e-04</internalNodes>
          <leafValues>
            -6.1420977115631104e-01 7.6610796153545380e-02</leafValues></_>
        <_>
          <internalNodes>
            0 -1 153 -6.4518256112933159e-04</internalNodes>
          <leafValues>
            2.4192900955677032e-01 -2.2209218144416809e-01</leafValues></_></weakClassifiers></_>
    <!-- stage 16 -->
    <_>
      <maxWeakCount>19</maxWeakCount>
      <stageThreshold>-1.7663993835449219e+00</stageThreshold>
      <weakClassifiers>
        <_>
          <internalNodes>
            0 -1 197 2.8264736756682396e-03</internalNodes>
          <leafValues>
            -7.8184282779693604e-01 -1.4093959331512451e-01</leafValues></_>
        <_>
          <internalNodes>
            0 -1 201 5.3006201051175594e-03</internalNodes>
          <leafValues>
            -4.3075171113014221e-01 1.5854378044605255e-01</leafValues></_>
        <_>
          <internalNodes>
            0 -1 193 1.0874882340431213e-01</internalNodes>
          <leafValues>
            -1.5506063401699066e-01 5.5230444669723511e-01</leafValues></_>
        <_>
          <internalNodes>
            0 -1 152 1.0945687536150217e-03</internalNodes>
          <leafValues>
            1.5065343677997589e-01 -4.9958136677742004e-01</leafValues></_>
        <_>
          <internalNodes>
            0 -1 21 4.5175366103649139e-02</internalNodes>
          <leafValues>
            -1.9689115881919861e-01 3.5288637876510620e-01</leafValues></_>
        <_>
          <internalNodes>
            0 -1 252 -9.3772187829017639e-03</internalNodes>
          <leafValues>
            -5.5438393354415894e-01 1.1122468113899231e-01</leafValues></_>
        <_>
          <internalNodes>
            0 -1 252 1.0623916983604431e-02</internalNodes>
          <leafValues>
            1.3687588274478912e-01 -5.5187660455703735e-01</leafValues></_>
        <_>
          <internalNodes>
            0 -1 46 1.6774661839008331e-02</internalNodes>
          <leafValues>
            1.1294445395469666e-01 -4.6498811244964600e-01</leafValues></_>
        <_>
          <internalNodes>
            0 -1 107 -9.5364168286323547e-02</internalNodes>
          <leafValues>
            -8.1112897396087646e-01 6.3219860196113586e-02</leafValues></_>
        <_>
          <internalNodes>
            0 -1 74 -2.2582741454243660e-02</internalNodes>
          <leafValues>
            -5.8691674470901489e-01 9.8777025938034058e-02</leafValues></_>
        <_>
          <internalNodes>
            0 -1 128 1.4553716406226158e-02</internalNodes>
          <leafValues>
            -1.6288639605045319e-01 4.3080759048461914e-01</leafValues></_>
        <_>
          <internalNodes>
            0 -1 119 -4.0648682042956352e-03</internalNodes>
          <leafValues>
            4.0959271788597107e-01 -1.9441184401512146e-01</leafValues></_>
        <_>
          <internalNodes>
            0 -1 73 -3.8845852017402649e-02</internalNodes>
          <leafValues>
            -8.7337106466293335e-01 7.1992352604866028e-02</leafValues></_>
        <_>
          <internalNodes>
            0 -1 27 -1.2236090842634439e-03</internalNodes>
          <leafValues>
            2.6283797621726990e-01 -2.3675307631492615e-01</leafValues></_>
        <_>
          <internalNodes>
            0 -1 154 9.1524664312601089e-03</internalNodes>
          <leafValues>
            -1.2723384797573090e-01 5.5611991882324219e-01</leafValues></_>
        <_>
          <internalNodes>
            0 -1 166 -1.2308888137340546e-02</internalNodes>
          <leafValues>
            4.4576075673103333e-01 -1.4566105604171753e-01</leafValues></_>
        <_>
          <internalNodes>
            0 -1 65 -1.1345203034579754e-02</internalNodes>
          <leafValues>
            4.1185528039932251e-01 -1.4283965528011322e-01</leafValues></_>
        <_>
          <internalNodes>
            0 -1 188 -2.1996947471052408e-03</internalNodes>
          <leafValues>
            -6.3231104612350464e-01 9.3339800834655762e-02</leafValues></_>
        <_>
          <internalNodes>
            0 -1 173 2.5723747909069061e-02</internalNodes>
          <leafValues>
            -1.3651581108570099e-01 4.5903518795967102e-01</leafValues></_></weakClassifiers></_>
    <!-- stage 17 -->
    <_>
      <maxWeakCount>21</maxWeakCount>
      <stageThreshold>-1.9173341989517212e+00</stageThreshold>
      <weakClassifiers>
        <_>
          <internalNodes>
            0 -1 101 -2.7146875858306885e-02</internalNodes>
          <leafValues>
            2.5000000372529030e-02 -7.6181226968765259e-01</leafValues></_>
        <_>
          <internalNodes>
            0 -1 129 1.4110659062862396e-01</internalNodes>
          <leafValues>
            -3.8387402892112732e-01 2.1795018017292023e-01</leafValues></_>
        <_>
          <internalNodes>
            0 -1 114 -5.7946447283029556e-02</internalNodes>
          <leafValues>
            4.9107456207275391e-01 -1.4762724936008453e-01</leafValues></_>
        <_>
          <internalNodes>
            0 -1 84 2.7360135316848755e-01</internalNodes>
          <leafValues>
            -2.2568817436695099e-01 3.6678487062454224e-01</leafValues></_>
        <_>
          <internalNodes>
            0 -1 158 8.7785094976425171e-02</internalNodes>
          <leafValues>
            1.2282924354076385e-01 -5.7788258790969849e-01</leafValues></_>
        <_>
          <internalNodes>
            0 -1 174 1.6156143974512815e-03</internalNodes>
          <leafValues>
            -1.3508036732673645e-01 4.7564625740051270e-01</leafValues></_>
        <_>
          <internalNodes>
            0 -1 187 -7.7687914017587900e-04</internalNodes>
          <leafValues>
            3.9282840490341187e-01 -1.7865033447742462e-01</leafValues></_>
        <_>
          <internalNodes>
            0 -1 37 6.0325592756271362e-02</internalNodes>
          <leafValues>
            -2.0334920287132263e-01 3.3328270912170410e-01</leafValues></_>
        <_>
          <internalNodes>
            0 -1 180 6.6439425572752953e-03</internalNodes>
          <leafValues>
            8.1957101821899414e-02 -6.7014533281326294e-01</leafValues></_>
        <_>
          <internalNodes>
            0 -1 52 8.6461119353771210e-03</internalNodes>
          <leafValues>
            -1.3375754654407501e-01 4.0019950270652771e-01</leafValues></_>
        <_>
          <internalNodes>
            0 -1 195 8.9604279492050409e-04</internalNodes>
          <leafValues>
            1.0244473069906235e-01 -5.4391950368881226e-01</leafValues></_>
        <_>
          <internalNodes>
            0 -1 223 -6.1425927560776472e-04</internalNodes>
          <leafValues>
            2.9978179931640625e-01 -1.7524048686027527e-01</leafValues></_>
        <_>
          <internalNodes>
            0 -1 254 9.1454423964023590e-03</internalNodes>
          <leafValues>
            8.5430510342121124e-02 -6.3312363624572754e-01</leafValues></_>
        <_>
          <internalNodes>
            0 -1 240 5.3787771612405777e-03</internalNodes>
          <leafValues>
            -1.4410151541233063e-01 4.1012653708457947e-01</leafValues></_>
        <_>
          <internalNodes>
            0 -1 237 1.0365738533437252e-02</internalNodes>
          <leafValues>
            7.8360140323638916e-02 -6.9052755832672119e-01</leafValues></_>
        <_>
          <internalNodes>
            0 -1 41 1.4810076914727688e-02</internalNodes>
          <leafValues>
            6.7727573215961456e-02 -7.0384639501571655e-01</leafValues></_>
        <_>
          <internalNodes>
            0 -1 38 -1.4310328289866447e-02</internalNodes>
          <leafValues>
            -7.8699737787246704e-01 6.2741801142692566e-02</leafValues></_>
        <_>
          <internalNodes>
            0 -1 64 1.5157108427956700e-03</internalNodes>
          <leafValues>
            -1.0020711272954941e-01 6.5289825201034546e-01</leafValues></_>
        <_>
          <internalNodes>
            0 -1 249 1.9595765043050051e-03</internalNodes>
          <leafValues>
            -9.8610967397689819e-02 4.9214565753936768e-01</leafValues></_>
        <_>
          <internalNodes>
            0 -1 76 -9.8365712910890579e-03</internalNodes>
          <leafValues>
            4.6503597497940063e-01 -1.0776236653327942e-01</leafValues></_>
        <_>
          <internalNodes>
            0 -1 135 -4.0303508285433054e-04</internalNodes>
          <leafValues>
            2.7900195121765137e-01 -2.0240625739097595e-01</leafValues></_></weakClassifiers></_>
    <!-- stage 18 -->
    <_>
      <maxWeakCount>20</maxWeakCount>
      <stageThreshold>-1.8157893419265747e+00</stageThreshold>
      <weakClassifiers>
        <_>
          <internalNodes>
            0 -1 143 1.5379162505269051e-02</internalNodes>
          <leafValues>
            -7.8008019924163818e-01 -6.2015503644943237e-02</leafValues></_>
        <_>
          <internalNodes>
            0 -1 62 6.6773802042007446e-02</internalNodes>
          <leafValues>
            -3.7202343344688416e-01 2.7798095345497131e-01</leafValues></_>
        <_>
          <internalNodes>
            0 -1 222 8.4100939333438873e-02</internalNodes>
          <leafValues>
            -1.3621556758880615e-01 6.0058623552322388e-01</leafValues></_>
        <_>
          <internalNodes>
            0 -1 93 7.1340993046760559e-02</internalNodes>
          <leafValues>
            -1.9976258277893066e-01 3.7916898727416992e-01</leafValues></_>
        <_>
          <internalNodes>
            0 -1 161 1.2598320841789246e-01</internalNodes>
          <leafValues>
            8.1007488071918488e-02 -8.1340378522872925e-01</leafValues></_>
        <_>
          <internalNodes>
            0 -1 6 1.7786552198231220e-03</internalNodes>
          <leafValues>
            1.2680242955684662e-01 -5.4620569944381714e-01</leafValues></_>
        <_>
          <internalNodes>
            0 -1 130 -6.0599837452173233e-03</internalNodes>
          <leafValues>
            3.1741815805435181e-01 -1.7476551234722137e-01</leafValues></_>
        <_>
          <internalNodes>
            0 -1 157 -9.3117635697126389e-03</internalNodes>
          <leafValues>
            3.7217885255813599e-01 -1.6759464144706726e-01</leafValues></_>
        <_>
          <internalNodes>
            0 -1 244 -3.0785007402300835e-03</internalNodes>
          <leafValues>
            3.3799445629119873e-01 -1.7483121156692505e-01</leafValues></_>
        <_>
          <internalNodes>
            0 -1 177 5.8288769796490669e-03</internalNodes>
          <leafValues>
            -1.4246742427349091e-01 4.7435677051544189e-01</leafValues></_>
        <_>
          <internalNodes>
            0 -1 178 -3.8516658823937178e-03</internalNodes>
          <leafValues>
            2.4797567725181580e-01 -2.5610446929931641e-01</leafValues></_>
        <_>
          <internalNodes>
            0 -1 136 3.9223115891218185e-03</internalNodes>
          <leafValues>
            1.2537185847759247e-01 -5.2363723516464233e-01</leafValues></_>
        <_>
          <internalNodes>
            0 -1 191 3.3599339076317847e-04</internalNodes>
          <leafValues>
            -2.2001864016056061e-01 2.7771604061126709e-01</leafValues></_>
        <_>
          <internalNodes>
            0 -1 20 -5.6932633742690086e-03</internalNodes>
          <leafValues>
            3.3153674006462097e-01 -1.9992865622043610e-01</leafValues></_>
        <_>
          <internalNodes>
            0 -1 216 1.5159354079514742e-03</internalNodes>
          <leafValues>
            9.5308907330036163e-02 -6.9660830497741699e-01</leafValues></_>
        <_>
          <internalNodes>
            0 -1 133 3.0049681663513184e-03</internalNodes>
          <leafValues>
            5.5965032428503036e-02 -7.8993946313858032e-01</leafValues></_>
        <_>
          <internalNodes>
            0 -1 97 -1.8649827688932419e-02</internalNodes>
          <leafValues>
            -9.4736015796661377e-01 4.4180996716022491e-02</leafValues></_>
        <_>
          <internalNodes>
            0 -1 100 -7.9953864216804504e-02</internalNodes>
          <leafValues>
            -7.9032146930694580e-01 4.5091852545738220e-02</leafValues></_>
        <_>
          <internalNodes>
            0 -1 233 2.0839609205722809e-03</internalNodes>
          <leafValues>
            -1.5316286683082581e-01 3.6088845133781433e-01</leafValues></_>
        <_>
          <internalNodes>
            0 -1 218 2.2643436677753925e-03</internalNodes>
          <leafValues>
            8.2883551716804504e-02 -6.5032124519348145e-01</leafValues></_></weakClassifiers></_></stages>
  <features>
    <_>
      <rects>
        <_>
          0 0 1 12 -1.</_>
        <_>
          0 6 1 6 2.</_></rects>
      <tilted>0</tilted></_>
    <_>
      <rects>
        <_>
          0 0 4 6 -1.</_>
        <_>
          2 0 2 6 2.</_></rects>
      <tilted>0</tilted></_>
    <_>
      <rects>
        <_>
          0 0 12 1 -1.</_>
        <_>
          4 0 4 1 3.</_></rects>
      <tilted>0</tilted></_>
    <_>
      <rects>
        <_>
          0 0 12 2 -1.</_>
        <_>
          4 0 4 2 3.</_></rects>
      <tilted>0</tilted></_>
    <_>
      <rects>
        <_>
          0 0 4 6 -1.</_>
        <_>
          0 2 4 2 3.</_></rects>
      <tilted>0</tilted></_>
    <_>
      <rects>
        <_>
          0 0 15 1 -1.</_>
        <_>
          5 0 5 1 3.</_></rects>
      <tilted>0</tilted></_>
    <_>
      <rects>
        <_>
          0 1 2 6 -1.</_>
        <_>
          0 3 2 2 3.</_></rects>
      <tilted>0</tilted></_>
    <_>
      <rects>
        <_>
          0 1 6 12 -1.</_>
        <_>
          0 1 3 6 2.</_>
        <_>
          3 7 3 6 2.</_></rects>
      <tilted>0</tilted></_>
    <_>
      <rects>
        <_>
          0 2 24 19 -1.</_>
        <_>
          8 2 8 19 3.</_></rects>
      <tilted>0</tilted></_>
    <_>
      <rects>
        <_>
          0 3 12 20 -1.</_>
        <_>
          6 3 6 20 2.</_></rects>
      <tilted>0</tilted></_>
    <_>
      <rects>
        <_>
          0 3 24 14 -1.</_>
        <_>
          8 3 8 14 3.</_></rects>
      <tilted>0</tilted></_>
    <_>
      <rects>
        <_>
          0 4 1 18 -1.</_>
        <_>
          0 13 1 9 2.</_></rects>
      <tilted>0</tilted></_>
    <_>
      <rects>
        <_>
          0 5 6 8 -1.</_>
        <_>
          3 5 3 8 2.</_></rects>
      <tilted>0</tilted></_>
    <_>
      <rects>
        <_>
          0 5 6 14 -1.</_>
        <_>
          3 5 3 14 2.</_></rects>
      <tilted>0</tilted></_>
    <_>
      <rects>
        <_>
          0 5 6 18 -1.</_>
        <_>
          0 11 6 6 3.</_></rects>
      <tilted>0</tilted></_>
    <_>
      <rects>
        <_>
          0 6 2 11 -1.</_>
        <_>
          1 6 1 11 2.</_></rects>
      <tilted>0</tilted></_>
    <_>
      <rects>
        <_>
          0 6 8 16 -1.</_>
        <_>
          4 6 4 16 2.</_></rects>
      <tilted>0</tilted></_>
    <_>
      <rects>
        <_>
          0 6 8 18 -1.</_>
        <_>
          4 6 4 18 2.</_></rects>
      <tilted>0</tilted></_>
    <_>
      <rects>
        <_>
          0 6 17 18 -1.</_>
        <_>
          0 12 17 6 3.</_></rects>
      <tilted>0</tilted></_>
    <_>
      <rects>
        <_>
          0 7 4 13 -1.</_>
        <_>
          2 7 2 13 2.</_></rects>
      <tilted>0</tilted></_>
    <_>
      <rects>
        <_>
          0 7 9 4 -1.</_>
        <_>
          3 7 3 4 3.</_></rects>
      <tilted>0</tilted></_>
    <_>
      <rects>
        <_>
          0 7 9 14 -1.</_>
        <_>
          3 7 3 14 3.</_></rects>
      <tilted>0</tilted></_>
    <_>
      <rects>
        <_>
          0 7 8 14 -1.</_>
        <_>
          4 7 4 14 2.</_></rects>
      <tilted>0</tilted></_>
    <_>
      <rects>
        <_>
          0 7 8 17 -1.</_>
        <_>
          4 7 4 17 2.</_></rects>
      <tilted>0</tilted></_>
    <_>
      <rects>
        <_>
          0 8 4 13 -1.</_>
        <_>
          2 8 2 13 2.</_></rects>
      <tilted>0</tilted></_>
    <_>
      <rects>
        <_>
          0 8 24 14 -1.</_>
        <_>
          8 8 8 14 3.</_></rects>
      <tilted>0</tilted></_>
    <_>
      <rects>
        <_>
          0 8 10 6 -1.</_>
        <_>
          0 10 10 2 3.</_></rects>
      <tilted>0</tilted></_>
    <_>
      <rects>
        <_>
          0 9 22 2 -1.</_>
        <_>
          0 9 11 1 2.</_>
        <_>
          11 10 11 1 2.</_></rects>
      <tilted>0</tilted></_>
    <_>
      <rects>
        <_>
          0 9 23 6 -1.</_>
        <_>
          0 11 23 2 3.</_></rects>
      <tilted>0</tilted></_>
    <_>
      <rects>
        <_>
          0 10 14 9 -1.</_>
        <_>
          0 13 14 3 3.</_></rects>
      <tilted>0</tilted></_>
    <_>
      <rects>
        <_>
          0 10 23 6 -1.</_>
        <_>
          0 12 23 2 3.</_></rects>
      <tilted>0</tilted></_>
    <_>
      <rects>
        <_>
          0 12 9 12 -1.</_>
        <_>
          0 16 9 4 3.</_></rects>
      <tilted>0</tilted></_>
    <_>
      <rects>
        <_>
          0 12 18 6 -1.</_>
        <_>
          0 14 18 2 3.</_></rects>
      <tilted>0</tilted></_>
    <_>
      <rects>
        <_>
          0 14 9 6 -1.</_>
        <_>
          3 14 3 6 3.</_></rects>
      <tilted>0</tilted></_>
    <_>
      <rects>
        <_>
          0 14 10 9 -1.</_>
        <_>
          5 14 5 9 2.</_></rects>
      <tilted>0</tilted></_>
    <_>
      <rects>
        <_>
          0 15 6 8 -1.</_>
        <_>
          3 15 3 8 2.</_></rects>
      <tilted>0</tilted></_>
    <_>
      <rects>
        <_>
          0 15 9 6 -1.</_>
        <_>
          0 17 9 2 3.</_></rects>
      <tilted>0</tilted></_>
    <_>
      <rects>
        <_>
          0 16 8 7 -1.</_>
        <_>
          4 16 4 7 2.</_></rects>
      <tilted>0</tilted></_>
    <_>
      <rects>
        <_>
          0 16 7 6 -1.</_>
        <_>
          0 18 7 2 3.</_></rects>
      <tilted>0</tilted></_>
    <_>
      <rects>
        <_>
          0 16 20 4 -1.</_>
        <_>
          0 16 10 2 2.</_>
        <_>
          10 18 10 2 2.</_></rects>
      <tilted>0</tilted></_>
    <_>
      <rects>
        <_>
          0 17 12 4 -1.</_>
        <_>
          4 17 4 4 3.</_></rects>
      <tilted>0</tilted></_>
    <_>
      <rects>
        <_>
          0 17 7 6 -1.</_>
        <_>
          0 19 7 2 3.</_></rects>
      <tilted>0</tilted></_>
    <_>
      <rects>
        <_>
          0 18 1 6 -1.</_>
        <_>
          0 21 1 3 2.</_></rects>
      <tilted>0</tilted></_>
    <_>
      <rects>
        <_>
          0 19 1 4 -1.</_>
        <_>
          0 21 1 2 2.</_></rects>
      <tilted>0</tilted></_>
    <_>
      <rects>
        <_>
          0 19 12 3 -1.</_>
        <_>
          6 19 6 3 2.</_></rects>
      <tilted>0</tilted></_>
    <_>
      <rects>
        <_>
          0 23 4 1 -1.</_>
        <_>
          2 23 2 1 2.</_></rects>
      <tilted>0</tilted></_>
    <_>
      <rects>
        <_>
          0 23 24 1 -1.</_>
        <_>
          8 23 8 1 3.</_></rects>
      <tilted>0</tilted></_>
    <_>
      <rects>
        <_>
          0 23 24 1 -1.</_>
        <_>
          12 23 12 1 2.</_></rects>
      <tilted>0</tilted></_>
    <_>
      <rects>
        <_>
          1 0 19 24 -1.</_>
        <_>
          1 8 19 8 3.</_></rects>
      <tilted>0</tilted></_>
    <_>
      <rects>
        <_>
          1 1 1 4 -1.</_>
        <_>
          1 3 1 2 2.</_></rects>
      <tilted>0</tilted></_>
    <_>
      <rects>
        <_>
          1 4 20 12 -1.</_>
        <_>
          1 8 20 4 3.</_></rects>
      <tilted>0</tilted></_>
    <_>
      <rects>
        <_>
          1 6 10 6 -1.</_>
        <_>
          1 8 10 2 3.</_></rects>
      <tilted>0</tilted></_>
    <_>
      <rects>
        <_>
          1 8 22 4 -1.</_>
        <_>
          1 8 11 2 2.</_>
        <_>
          12 10 11 2 2.</_></rects>
      <tilted>0</tilted></_>
    <_>
      <rects>
        <_>
          1 17 4 6 -1.</_>
        <_>
          1 17 2 3 2.</_>
        <_>
          3 20 2 3 2.</_></rects>
      <tilted>0</tilted></_>
    <_>
      <rects>
        <_>
          1 17 9 3 -1.</_>
        <_>
          1 18 9 1 3.</_></rects>
      <tilted>0</tilted></_>
    <_>
      <rects>
        <_>
          1 18 12 4 -1.</_>
        <_>
          1 18 6 2 2.</_>
        <_>
          7 20 6 2 2.</_></rects>
      <tilted>0</tilted></_>
    <_>
      <rects>
        <_>
          1 18 8 2 -1.</_>
        <_>
          1 19 8 1 2.</_></rects>
      <tilted>0</tilted></_>
    <_>
      <rects>
        <_>
          1 23 4 1 -1.</_>
        <_>
          3 23 2 1 2.</_></rects>
      <tilted>0</tilted></_>
    <_>
      <rects>
        <_>
          2 0 3 24 -1.</_>
        <_>
          2 8 3 8 3.</_></rects>
      <tilted>0</tilted></_>
    <_>
      <rects>
        <_>
          2 0 7 21 -1.</_>
        <_>
          2 7 7 7 3.</_></rects>
      <tilted>0</tilted></_>
    <_>
      <rects>
        <_>
          2 0 8 24 -1.</_>
        <_>
          2 8 8 8 3.</_></rects>
      <tilted>0</tilted></_>
    <_>
      <rects>
        <_>
          2 0 18 12 -1.</_>
        <_>
          2 6 18 6 2.</_></rects>
      <tilted>0</tilted></_>
    <_>
      <rects>
        <_>
          2 3 2 21 -1.</_>
        <_>
          2 10 2 7 3.</_></rects>
      <tilted>0</tilted></_>
    <_>
      <rects>
        <_>
          2 6 16 18 -1.</_>
        <_>
          2 12 16 6 3.</_></rects>
      <tilted>0</tilted></_>
    <_>
      <rects>
        <_>
          2 7 2 2 -1.</_>
        <_>
          2 7 1 1 2.</_>
        <_>
          3 8 1 1 2.</_></rects>
      <tilted>0</tilted></_>
    <_>
      <rects>
        <_>
          2 10 4 12 -1.</_>
        <_>
          2 10 2 6 2.</_>
        <_>
          4 16 2 6 2.</_></rects>
      <tilted>0</tilted></_>
    <_>
      <rects>
        <_>
          2 18 20 6 -1.</_>
        <_>
          2 21 20 3 2.</_></rects>
      <tilted>0</tilted></_>
    <_>
      <rects>
        <_>
          3 0 3 24 -1.</_>
        <_>
          3 8 3 8 3.</_></rects>
      <tilted>0</tilted></_>
    <_>
      <rects>
        <_>
          3 0 16 4 -1.</_>
        <_>
          3 0 8 2 2.</_>
        <_>
          11 2 8 2 2.</_></rects>
      <tilted>0</tilted></_>
    <_>
      <rects>
        <_>
          3 0 8 18 -1.</_>
        <_>
          3 9 8 9 2.</_></rects>
      <tilted>0</tilted></_>
    <_>
      <rects>
        <_>
          3 0 19 12 -1.</_>
        <_>
          3 6 19 6 2.</_></rects>
      <tilted>0</tilted></_>
    <_>
      <rects>
        <_>
          3 1 7 12 -1.</_>
        <_>
          3 7 7 6 2.</_></rects>
      <tilted>0</tilted></_>
    <_>
      <rects>
        <_>
          3 3 18 8 -1.</_>
        <_>
          3 7 18 4 2.</_></rects>
      <tilted>0</tilted></_>
    <_>
      <rects>
        <_>
          3 4 8 16 -1.</_>
        <_>
          3 4 4 8 2.</_>
        <_>
          7 12 4 8 2.</_></rects>
      <tilted>0</tilted></_>
    <_>
      <rects>
        <_>
          3 6 18 4 -1.</_>
        <_>
          9 6 6 4 3.</_></rects>
      <tilted>0</tilted></_>
    <_>
      <rects>
        <_>
          3 13 21 3 -1.</_>
        <_>
          3 14 21 1 3.</_></rects>
      <tilted>0</tilted></_>
    <_>
      <rects>
        <_>
          3 16 6 6 -1.</_>
        <_>
          3 16 3 3 2.</_>
        <_>
          6 19 3 3 2.</_></rects>
      <tilted>0</tilted></_>
    <_>
      <rects>
        <_>
          3 16 21 6 -1.</_>
        <_>
          3 18 21 2 3.</_></rects>
      <tilted>0</tilted></_>
    <_>
      <rects>
        <_>
          3 17 9 7 -1.</_>
        <_>
          6 17 3 7 3.</_></rects>
      <tilted>0</tilted></_>
    <_>
      <rects>
        <_>
          3 18 9 6 -1.</_>
        <_>
          6 18 3 6 3.</_></rects>
      <tilted>0</tilted></_>
    <_>
      <rects>
        <_>
          3 18 20 6 -1.</_>
        <_>
          3 21 20 3 2.</_></rects>
      <tilted>0</tilted></_>
    <_>
      <rects>
        <_>
          3 20 20 4 -1.</_>
        <_>
          3 22 20 2 2.</_></rects>
      <tilted>0</tilted></_>
    <_>
      <rects>
        <_>
          3 22 17 2 -1.</_>
        <_>
          3 23 17 1 2.</_></rects>
      <tilted>0</tilted></_>
    <_>
      <rects>
        <_>
          4 0 20 1 -1.</_>
        <_>
          14 0 10 1 2.</_></rects>
      <tilted>0</tilted></_>
    <_>
      <rects>
        <_>
          4 0 14 14 -1.</_>
        <_>
          4 7 14 7 2.</_></rects>
      <tilted>0</tilted></_>
    <_>
      <rects>
        <_>
          4 0 14 24 -1.</_>
        <_>
          4 8 14 8 3.</_></rects>
      <tilted>0</tilted></_>
    <_>
      <rects>
        <_>
          4 0 16 14 -1.</_>
        <_>
          4 7 16 7 2.</_></rects>
      <tilted>0</tilted></_>
    <_>
      <rects>
        <_>
          4 0 17 14 -1.</_>
        <_>
          4 7 17 7 2.</_></rects>
      <tilted>0</tilted></_>
    <_>
      <rects>
        <_>
          4 7 4 4 -1.</_>
        <_>
          6 7 2 4 2.</_></rects>
      <tilted>0</tilted></_>
    <_>
      <rects>
        <_>
          4 20 11 4 -1.</_>
        <_>
          4 22 11 2 2.</_></rects>
      <tilted>0</tilted></_>
    <_>
      <rects>
        <_>
          5 0 7 12 -1.</_>
        <_>
          5 6 7 6 2.</_></rects>
      <tilted>0</tilted></_>
    <_>
      <rects>
        <_>
          5 0 15 12 -1.</_>
        <_>
          5 6 15 6 2.</_></rects>
      <tilted>0</tilted></_>
    <_>
      <rects>
        <_>
          5 2 19 18 -1.</_>
        <_>
          5 11 19 9 2.</_></rects>
      <tilted>0</tilted></_>
    <_>
      <rects>
        <_>
          5 4 17 9 -1.</_>
        <_>
          5 7 17 3 3.</_></rects>
      <tilted>0</tilted></_>
    <_>
      <rects>
        <_>
          5 5 17 6 -1.</_>
        <_>
          5 7 17 2 3.</_></rects>
      <tilted>0</tilted></_>
    <_>
      <rects>
        <_>
          5 12 12 4 -1.</_>
        <_>
          5 12 6 2 2.</_>
        <_>
          11 14 6 2 2.</_></rects>
      <tilted>0</tilted></_>
    <_>
      <rects>
        <_>
          5 20 17 4 -1.</_>
        <_>
          5 22 17 2 2.</_></rects>
      <tilted>0</tilted></_>
    <_>
      <rects>
        <_>
          6 0 18 1 -1.</_>
        <_>
          15 0 9 1 2.</_></rects>
      <tilted>0</tilted></_>
    <_>
      <rects>
        <_>
          6 1 18 14 -1.</_>
        <_>
          12 1 6 14 3.</_></rects>
      <tilted>0</tilted></_>
    <_>
      <rects>
        <_>
          6 1 13 20 -1.</_>
        <_>
          6 11 13 10 2.</_></rects>
      <tilted>0</tilted></_>
    <_>
      <rects>
        <_>
          6 2 12 16 -1.</_>
        <_>
          6 2 6 8 2.</_>
        <_>
          12 10 6 8 2.</_></rects>
      <tilted>0</tilted></_>
    <_>
      <rects>
        <_>
          6 3 10 4 -1.</_>
        <_>
          6 3 5 2 2.</_>
        <_>
          11 5 5 2 2.</_></rects>
      <tilted>0</tilted></_>
    <_>
      <rects>
        <_>
          6 7 12 9 -1.</_>
        <_>
          10 7 4 9 3.</_></rects>
      <tilted>0</tilted></_>
    <_>
      <rects>
        <_>
          6 9 13 3 -1.</_>
        <_>
          6 10 13 1 3.</_></rects>
      <tilted>0</tilted></_>
    <_>
      <rects>
        <_>
          6 10 10 4 -1.</_>
        <_>
          6 10 5 2 2.</_>
        <_>
          11 12 5 2 2.</_></rects>
      <tilted>0</tilted></_>
    <_>
      <rects>
        <_>
          6 22 8 2 -1.</_>
        <_>
          6 23 8 1 2.</_></rects>
      <tilted>0</tilted></_>
    <_>
      <rects>
        <_>
          7 0 2 12 -1.</_>
        <_>
          7 6 2 6 2.</_></rects>
      <tilted>0</tilted></_>
    <_>
      <rects>
        <_>
          7 0 14 12 -1.</_>
        <_>
          7 0 7 6 2.</_>
        <_>
          14 6 7 6 2.</_></rects>
      <tilted>0</tilted></_>
    <_>
      <rects>
        <_>
          7 0 13 21 -1.</_>
        <_>
          7 7 13 7 3.</_></rects>
      <tilted>0</tilted></_>
    <_>
      <rects>
        <_>
          7 2 10 4 -1.</_>
        <_>
          7 2 5 2 2.</_>
        <_>
          12 4 5 2 2.</_></rects>
      <tilted>0</tilted></_>
    <_>
      <rects>
        <_>
          7 3 15 2 -1.</_>
        <_>
          12 3 5 2 3.</_></rects>
      <tilted>0</tilted></_>
    <_>
      <rects>
        <_>
          7 11 6 5 -1.</_>
        <_>
          9 11 2 5 3.</_></rects>
      <tilted>0</tilted></_>
    <_>
      <rects>
        <_>
          7 22 12 2 -1.</_>
        <_>
          7 23 12 1 2.</_></rects>
      <tilted>0</tilted></_>
    <_>
      <rects>
        <_>
          8 0 3 20 -1.</_>
        <_>
          8 10 3 10 2.</_></rects>
      <tilted>0</tilted></_>
    <_>
      <rects>
        <_>
          8 0 3 22 -1.</_>
        <_>
          8 11 3 11 2.</_></rects>
      <tilted>0</tilted></_>
    <_>
      <rects>
        <_>
          8 0 16 1 -1.</_>
        <_>
          16 0 8 1 2.</_></rects>
      <tilted>0</tilted></_>
    <_>
      <rects>
        <_>
          8 1 3 10 -1.</_>
        <_>
          8 6 3 5 2.</_></rects>
      <tilted>0</tilted></_>
    <_>
      <rects>
        <_>
          8 2 6 5 -1.</_>
        <_>
          10 2 2 5 3.</_></rects>
      <tilted>0</tilted></_>
    <_>
      <rects>
        <_>
          8 2 15 2 -1.</_>
        <_>
          13 2 5 2 3.</_></rects>
      <tilted>0</tilted></_>
    <_>
      <rects>
        <_>
          8 3 8 1 -1.</_>
        <_>
          12 3 4 1 2.</_></rects>
      <tilted>0</tilted></_>
    <_>
      <rects>
        <_>
          8 9 4 8 -1.</_>
        <_>
          8 9 2 4 2.</_>
        <_>
          10 13 2 4 2.</_></rects>
      <tilted>0</tilted></_>
    <_>
      <rects>
        <_>
          8 9 15 6 -1.</_>
        <_>
          8 11 15 2 3.</_></rects>
      <tilted>0</tilted></_>
    <_>
      <rects>
        <_>
          8 10 16 6 -1.</_>
        <_>
          8 12 16 2 3.</_></rects>
      <tilted>0</tilted></_>
    <_>
      <rects>
        <_>
          8 14 9 2 -1.</_>
        <_>
          11 14 3 2 3.</_></rects>
      <tilted>0</tilted></_>
    <_>
      <rects>
        <_>
          9 0 2 9 -1.</_>
        <_>
          9 3 2 3 3.</_></rects>
      <tilted>0</tilted></_>
    <_>
      <rects>
        <_>
          9 1 1 20 -1.</_>
        <_>
          9 11 1 10 2.</_></rects>
      <tilted>0</tilted></_>
    <_>
      <rects>
        <_>
          9 1 9 6 -1.</_>
        <_>
          12 1 3 6 3.</_></rects>
      <tilted>0</tilted></_>
    <_>
      <rects>
        <_>
          9 1 15 22 -1.</_>
        <_>
          14 1 5 22 3.</_></rects>
      <tilted>0</tilted></_>
    <_>
      <rects>
        <_>
          9 2 8 3 -1.</_>
        <_>
          13 2 4 3 2.</_></rects>
      <tilted>0</tilted></_>
    <_>
      <rects>
        <_>
          9 2 15 12 -1.</_>
        <_>
          14 2 5 12 3.</_></rects>
      <tilted>0</tilted></_>
    <_>
      <rects>
        <_>
          9 3 6 16 -1.</_>
        <_>
          11 3 2 16 3.</_></rects>
      <tilted>0</tilted></_>
    <_>
      <rects>
        <_>
          9 4 9 1 -1.</_>
        <_>
          12 4 3 1 3.</_></rects>
      <tilted>0</tilted></_>
    <_>
      <rects>
        <_>
          9 5 4 2 -1.</_>
        <_>
          9 5 2 1 2.</_>
        <_>
          11 6 2 1 2.</_></rects>
      <tilted>0</tilted></_>
    <_>
      <rects>
        <_>
          9 9 6 6 -1.</_>
        <_>
          9 9 3 3 2.</_>
        <_>
          12 12 3 3 2.</_></rects>
      <tilted>0</tilted></_>
    <_>
      <rects>
        <_>
          9 9 10 3 -1.</_>
        <_>
          9 10 10 1 3.</_></rects>
      <tilted>0</tilted></_>
    <_>
      <rects>
        <_>
          9 16 2 8 -1.</_>
        <_>
          9 16 1 4 2.</_>
        <_>
          10 20 1 4 2.</_></rects>
      <tilted>0</tilted></_>
    <_>
      <rects>
        <_>
          9 17 10 4 -1.</_>
        <_>
          9 17 5 2 2.</_>
        <_>
          14 19 5 2 2.</_></rects>
      <tilted>0</tilted></_>
    <_>
      <rects>
        <_>
          9 18 13 6 -1.</_>
        <_>
          9 21 13 3 2.</_></rects>
      <tilted>0</tilted></_>
    <_>
      <rects>
        <_>
          9 20 6 3 -1.</_>
        <_>
          11 20 2 3 3.</_></rects>
      <tilted>0</tilted></_>
    <_>
      <rects>
        <_>
          9 20 4 4 -1.</_>
        <_>
          9 22 4 2 2.</_></rects>
      <tilted>0</tilted></_>
    <_>
      <rects>
        <_>
          9 22 12 2 -1.</_>
        <_>
          9 23 12 1 2.</_></rects>
      <tilted>0</tilted></_>
    <_>
      <rects>
        <_>
          10 2 6 6 -1.</_>
        <_>
          12 2 2 6 3.</_></rects>
      <tilted>0</tilted></_>
    <_>
      <rects>
        <_>
          10 2 6 3 -1.</_>
        <_>
          13 2 3 3 2.</_></rects>
      <tilted>0</tilted></_>
    <_>
      <rects>
        <_>
          10 3 9 1 -1.</_>
        <_>
          13 3 3 1 3.</_></rects>
      <tilted>0</tilted></_>
    <_>
      <rects>
        <_>
          10 3 9 2 -1.</_>
        <_>
          13 3 3 2 3.</_></rects>
      <tilted>0</tilted></_>
    <_>
      <rects>
        <_>
          10 4 8 20 -1.</_>
        <_>
          10 14 8 10 2.</_></rects>
      <tilted>0</tilted></_>
    <_>
      <rects>
        <_>
          10 5 4 2 -1.</_>
        <_>
          10 5 2 1 2.</_>
        <_>
          12 6 2 1 2.</_></rects>
      <tilted>0</tilted></_>
    <_>
      <rects>
        <_>
          10 5 8 2 -1.</_>
        <_>
          10 5 4 1 2.</_>
        <_>
          14 6 4 1 2.</_></rects>
      <tilted>0</tilted></_>
    <_>
      <rects>
        <_>
          10 9 3 7 -1.</_>
        <_>
          11 9 1 7 3.</_></rects>
      <tilted>0</tilted></_>
    <_>
      <rects>
        <_>
          10 10 4 8 -1.</_>
        <_>
          10 10 2 4 2.</_>
        <_>
          12 14 2 4 2.</_></rects>
      <tilted>0</tilted></_>
    <_>
      <rects>
        <_>
          10 10 8 10 -1.</_>
        <_>
          10 10 4 5 2.</_>
        <_>
          14 15 4 5 2.</_></rects>
      <tilted>0</tilted></_>
    <_>
      <rects>
        <_>
          10 13 6 3 -1.</_>
        <_>
          12 13 2 3 3.</_></rects>
      <tilted>0</tilted></_>
    <_>
      <rects>
        <_>
          10 14 8 4 -1.</_>
        <_>
          10 14 4 2 2.</_>
        <_>
          14 16 4 2 2.</_></rects>
      <tilted>0</tilted></_>
    <_>
      <rects>
        <_>
          10 19 6 4 -1.</_>
        <_>
          12 19 2 4 3.</_></rects>
      <tilted>0</tilted></_>
    <_>
      <rects>
        <_>
          10 22 10 2 -1.</_>
        <_>
          10 23 10 1 2.</_></rects>
      <tilted>0</tilted></_>
    <_>
      <rects>
        <_>
          11 0 10 4 -1.</_>
        <_>
          11 0 5 2 2.</_>
        <_>
          16 2 5 2 2.</_></rects>
      <tilted>0</tilted></_>
    <_>
      <rects>
        <_>
          11 1 4 6 -1.</_>
        <_>
          11 1 2 3 2.</_>
        <_>
          13 4 2 3 2.</_></rects>
      <tilted>0</tilted></_>
    <_>
      <rects>
        <_>
          11 1 6 6 -1.</_>
        <_>
          14 1 3 6 2.</_></rects>
      <tilted>0</tilted></_>
    <_>
      <rects>
        <_>
          11 1 6 10 -1.</_>
        <_>
          11 6 6 5 2.</_></rects>
      <tilted>0</tilted></_>
    <_>
      <rects>
        <_>
          11 2 9 1 -1.</_>
        <_>
          14 2 3 1 3.</_></rects>
      <tilted>0</tilted></_>
    <_>
      <rects>
        <_>
          11 2 9 2 -1.</_>
        <_>
          14 2 3 2 3.</_></rects>
      <tilted>0</tilted></_>
    <_>
      <rects>
        <_>
          11 2 8 15 -1.</_>
        <_>
          11 7 8 5 3.</_></rects>
      <tilted>0</tilted></_>
    <_>
      <rects>
        <_>
          11 4 6 1 -1.</_>
        <_>
          13 4 2 1 3.</_></rects>
      <tilted>0</tilted></_>
    <_>
      <rects>
        <_>
          11 10 4 6 -1.</_>
        <_>
          11 12 4 2 3.</_></rects>
      <tilted>0</tilted></_>
    <_>
      <rects>
        <_>
          11 11 1 9 -1.</_>
        <_>
          11 14 1 3 3.</_></rects>
      <tilted>0</tilted></_>
    <_>
      <rects>
        <_>
          11 18 12 6 -1.</_>
        <_>
          11 21 12 3 2.</_></rects>
      <tilted>0</tilted></_>
    <_>
      <rects>
        <_>
          11 22 9 2 -1.</_>
        <_>
          11 23 9 1 2.</_></rects>
      <tilted>0</tilted></_>
    <_>
      <rects>
        <_>
          12 0 2 4 -1.</_>
        <_>
          12 0 1 2 2.</_>
        <_>
          13 2 1 2 2.</_></rects>
      <tilted>0</tilted></_>
    <_>
      <rects>
        <_>
          12 0 12 1 -1.</_>
        <_>
          18 0 6 1 2.</_></rects>
      <tilted>0</tilted></_>
    <_>
      <rects>
        <_>
          12 0 6 10 -1.</_>
        <_>
          12 5 6 5 2.</_></rects>
      <tilted>0</tilted></_>
    <_>
      <rects>
        <_>
          12 1 6 6 -1.</_>
        <_>
          14 1 2 6 3.</_></rects>
      <tilted>0</tilted></_>
    <_>
      <rects>
        <_>
          12 2 8 8 -1.</_>
        <_>
          12 2 4 4 2.</_>
        <_>
          16 6 4 4 2.</_></rects>
      <tilted>0</tilted></_>
    <_>
      <rects>
        <_>
          12 3 6 6 -1.</_>
        <_>
          12 3 3 3 2.</_>
        <_>
          15 6 3 3 2.</_></rects>
      <tilted>0</tilted></_>
    <_>
      <rects>
        <_>
          12 3 11 6 -1.</_>
        <_>
          12 5 11 2 3.</_></rects>
      <tilted>0</tilted></_>
    <_>
      <rects>
        <_>
          12 5 4 2 -1.</_>
        <_>
          12 5 2 1 2.</_>
        <_>
          14 6 2 1 2.</_></rects>
      <tilted>0</tilted></_>
    <_>
      <rects>
        <_>
          12 5 6 2 -1.</_>
        <_>
          12 5 3 1 2.</_>
        <_>
          15 6 3 1 2.</_></rects>
      <tilted>0</tilted></_>
    <_>
      <rects>
        <_>
          12 11 12 4 -1.</_>
        <_>
          18 11 6 4 2.</_></rects>
      <tilted>0</tilted></_>
    <_>
      <rects>
        <_>
          12 16 3 8 -1.</_>
        <_>
          12 20 3 4 2.</_></rects>
      <tilted>0</tilted></_>
    <_>
      <rects>
        <_>
          12 18 1 6 -1.</_>
        <_>
          12 21 1 3 2.</_></rects>
      <tilted>0</tilted></_>
    <_>
      <rects>
        <_>
          12 20 2 4 -1.</_>
        <_>
          12 22 2 2 2.</_></rects>
      <tilted>0</tilted></_>
    <_>
      <rects>
        <_>
          13 0 3 15 -1.</_>
        <_>
          14 0 1 15 3.</_></rects>
      <tilted>0</tilted></_>
    <_>
      <rects>
        <_>
          13 0 3 6 -1.</_>
        <_>
          13 2 3 2 3.</_></rects>
      <tilted>0</tilted></_>
    <_>
      <rects>
        <_>
          13 2 3 15 -1.</_>
        <_>
          14 2 1 15 3.</_></rects>
      <tilted>0</tilted></_>
    <_>
      <rects>
        <_>
          13 2 4 4 -1.</_>
        <_>
          13 2 2 2 2.</_>
        <_>
          15 4 2 2 2.</_></rects>
      <tilted>0</tilted></_>
    <_>
      <rects>
        <_>
          13 3 6 4 -1.</_>
        <_>
          13 3 3 2 2.</_>
        <_>
          16 5 3 2 2.</_></rects>
      <tilted>0</tilted></_>
    <_>
      <rects>
        <_>
          13 3 7 8 -1.</_>
        <_>
          13 7 7 4 2.</_></rects>
      <tilted>0</tilted></_>
    <_>
      <rects>
        <_>
          13 4 4 2 -1.</_>
        <_>
          13 4 2 1 2.</_>
        <_>
          15 5 2 1 2.</_></rects>
      <tilted>0</tilted></_>
    <_>
      <rects>
        <_>
          13 5 4 2 -1.</_>
        <_>
          13 5 2 1 2.</_>
        <_>
          15 6 2 1 2.</_></rects>
      <tilted>0</tilted></_>
    <_>
      <rects>
        <_>
          13 10 3 14 -1.</_>
        <_>
          14 10 1 14 3.</_></rects>
      <tilted>0</tilted></_>
    <_>
      <rects>
        <_>
          13 10 4 10 -1.</_>
        <_>
          13 10 2 5 2.</_>
        <_>
          15 15 2 5 2.</_></rects>
      <tilted>0</tilted></_>
    <_>
      <rects>
        <_>
          13 11 3 13 -1.</_>
        <_>
          14 11 1 13 3.</_></rects>
      <tilted>0</tilted></_>
    <_>
      <rects>
        <_>
          13 14 2 10 -1.</_>
        <_>
          13 14 1 5 2.</_>
        <_>
          14 19 1 5 2.</_></rects>
      <tilted>0</tilted></_>
    <_>
      <rects>
        <_>
          14 0 4 6 -1.</_>
        <_>
          14 0 2 3 2.</_>
        <_>
          16 3 2 3 2.</_></rects>
      <tilted>0</tilted></_>
    <_>
      <rects>
        <_>
          14 1 10 13 -1.</_>
        <_>
          19 1 5 13 2.</_></rects>
      <tilted>0</tilted></_>
    <_>
      <rects>
        <_>
          14 4 1 3 -1.</_>
        <_>
          14 5 1 1 3.</_></rects>
      <tilted>0</tilted></_>
    <_>
      <rects>
        <_>
          14 8 2 10 -1.</_>
        <_>
          14 8 1 5 2.</_>
        <_>
          15 13 1 5 2.</_></rects>
      <tilted>0</tilted></_>
    <_>
      <rects>
        <_>
          14 12 10 1 -1.</_>
        <_>
          19 12 5 1 2.</_></rects>
      <tilted>0</tilted></_>
    <_>
      <rects>
        <_>
          15 0 2 2 -1.</_>
        <_>
          15 1 2 1 2.</_></rects>
      <tilted>0</tilted></_>
    <_>
      <rects>
        <_>
          15 2 6 6 -1.</_>
        <_>
          15 4 6 2 3.</_></rects>
      <tilted>0</tilted></_>
    <_>
      <rects>
        <_>
          15 4 9 18 -1.</_>
        <_>
          15 10 9 6 3.</_></rects>
      <tilted>0</tilted></_>
    <_>
      <rects>
        <_>
          15 11 8 4 -1.</_>
        <_>
          19 11 4 4 2.</_></rects>
      <tilted>0</tilted></_>
    <_>
      <rects>
        <_>
          15 14 9 4 -1.</_>
        <_>
          15 16 9 2 2.</_></rects>
      <tilted>0</tilted></_>
    <_>
      <rects>
        <_>
          15 19 8 4 -1.</_>
        <_>
          15 19 4 2 2.</_>
        <_>
          19 21 4 2 2.</_></rects>
      <tilted>0</tilted></_>
    <_>
      <rects>
        <_>
          15 21 3 3 -1.</_>
        <_>
          15 22 3 1 3.</_></rects>
      <tilted>0</tilted></_>
    <_>
      <rects>
        <_>
          16 1 8 14 -1.</_>
        <_>
          16 1 4 7 2.</_>
        <_>
          20 8 4 7 2.</_></rects>
      <tilted>0</tilted></_>
    <_>
      <rects>
        <_>
          16 1 8 22 -1.</_>
        <_>
          20 1 4 22 2.</_></rects>
      <tilted>0</tilted></_>
    <_>
      <rects>
        <_>
          16 1 8 23 -1.</_>
        <_>
          20 1 4 23 2.</_></rects>
      <tilted>0</tilted></_>
    <_>
      <rects>
        <_>
          16 3 8 19 -1.</_>
        <_>
          20 3 4 19 2.</_></rects>
      <tilted>0</tilted></_>
    <_>
      <rects>
        <_>
          16 4 8 10 -1.</_>
        <_>
          20 4 4 10 2.</_></rects>
      <tilted>0</tilted></_>
    <_>
      <rects>
        <_>
          16 5 8 2 -1.</_>
        <_>
          16 6 8 1 2.</_></rects>
      <tilted>0</tilted></_>
    <_>
      <rects>
        <_>
          16 9 8 6 -1.</_>
        <_>
          20 9 4 6 2.</_></rects>
      <tilted>0</tilted></_>
    <_>
      <rects>
        <_>
          16 11 8 5 -1.</_>
        <_>
          20 11 4 5 2.</_></rects>
      <tilted>0</tilted></_>
    <_>
      <rects>
        <_>
          17 4 2 3 -1.</_>
        <_>
          17 5 2 1 3.</_></rects>
      <tilted>0</tilted></_>
    <_>
      <rects>
        <_>
          17 11 6 6 -1.</_>
        <_>
          17 13 6 2 3.</_></rects>
      <tilted>0</tilted></_>
    <_>
      <rects>
        <_>
          17 14 6 4 -1.</_>
        <_>
          17 14 3 2 2.</_>
        <_>
          20 16 3 2 2.</_></rects>
      <tilted>0</tilted></_>
    <_>
      <rects>
        <_>
          17 14 6 9 -1.</_>
        <_>
          17 17 6 3 3.</_></rects>
      <tilted>0</tilted></_>
    <_>
      <rects>
        <_>
          18 0 6 1 -1.</_>
        <_>
          20 0 2 1 3.</_></rects>
      <tilted>0</tilted></_>
    <_>
      <rects>
        <_>
          18 4 6 6 -1.</_>
        <_>
          18 6 6 2 3.</_></rects>
      <tilted>0</tilted></_>
    <_>
      <rects>
        <_>
          18 5 3 3 -1.</_>
        <_>
          19 5 1 3 3.</_></rects>
      <tilted>0</tilted></_>
    <_>
      <rects>
        <_>
          18 5 6 18 -1.</_>
        <_>
          21 5 3 18 2.</_></rects>
      <tilted>0</tilted></_>
    <_>
      <rects>
        <_>
          18 6 6 14 -1.</_>
        <_>
          21 6 3 14 2.</_></rects>
      <tilted>0</tilted></_>
    <_>
      <rects>
        <_>
          18 7 6 15 -1.</_>
        <_>
          21 7 3 15 2.</_></rects>
      <tilted>0</tilted></_>
    <_>
      <rects>
        <_>
          18 8 6 15 -1.</_>
        <_>
          21 8 3 15 2.</_></rects>
      <tilted>0</tilted></_>
    <_>
      <rects>
        <_>
          18 8 5 2 -1.</_>
        <_>
          18 9 5 1 2.</_></rects>
      <tilted>0</tilted></_>
    <_>
      <rects>
        <_>
          18 8 5 9 -1.</_>
        <_>
          18 11 5 3 3.</_></rects>
      <tilted>0</tilted></_>
    <_>
      <rects>
        <_>
          18 8 6 9 -1.</_>
        <_>
          18 11 6 3 3.</_></rects>
      <tilted>0</tilted></_>
    <_>
      <rects>
        <_>
          18 12 6 10 -1.</_>
        <_>
          21 12 3 10 2.</_></rects>
      <tilted>0</tilted></_>
    <_>
      <rects>
        <_>
          18 12 5 12 -1.</_>
        <_>
          18 16 5 4 3.</_></rects>
      <tilted>0</tilted></_>
    <_>
      <rects>
        <_>
          18 14 2 7 -1.</_>
        <_>
          19 14 1 7 2.</_></rects>
      <tilted>0</tilted></_>
    <_>
      <rects>
        <_>
          18 14 5 4 -1.</_>
        <_>
          18 16 5 2 2.</_></rects>
      <tilted>0</tilted></_>
    <_>
      <rects>
        <_>
          19 4 3 9 -1.</_>
        <_>
          19 7 3 3 3.</_></rects>
      <tilted>0</tilted></_>
    <_>
      <rects>
        <_>
          19 9 4 10 -1.</_>
        <_>
          21 9 2 10 2.</_></rects>
      <tilted>0</tilted></_>
    <_>
      <rects>
        <_>
          19 9 3 9 -1.</_>
        <_>
          19 12 3 3 3.</_></rects>
      <tilted>0</tilted></_>
    <_>
      <rects>
        <_>
          19 12 2 6 -1.</_>
        <_>
          19 12 1 3 2.</_>
        <_>
          20 15 1 3 2.</_></rects>
      <tilted>0</tilted></_>
    <_>
      <rects>
        <_>
          19 12 4 6 -1.</_>
        <_>
          19 12 2 3 2.</_>
        <_>
          21 15 2 3 2.</_></rects>
      <tilted>0</tilted></_>
    <_>
      <rects>
        <_>
          19 12 3 12 -1.</_>
        <_>
          19 16 3 4 3.</_></rects>
      <tilted>0</tilted></_>
    <_>
      <rects>
        <_>
          20 0 4 1 -1.</_>
        <_>
          22 0 2 1 2.</_></rects>
      <tilted>0</tilted></_>
    <_>
      <rects>
        <_>
          20 3 3 16 -1.</_>
        <_>
          21 3 1 16 3.</_></rects>
      <tilted>0</tilted></_>
    <_>
      <rects>
        <_>
          20 4 1 9 -1.</_>
        <_>
          20 7 1 3 3.</_></rects>
      <tilted>0</tilted></_>
    <_>
      <rects>
        <_>
          20 4 2 9 -1.</_>
        <_>
          21 4 1 9 2.</_></rects>
      <tilted>0</tilted></_>
    <_>
      <rects>
        <_>
          20 7 2 6 -1.</_>
        <_>
          20 9 2 2 3.</_></rects>
      <tilted>0</tilted></_>
    <_>
      <rects>
        <_>
          20 7 4 15 -1.</_>
        <_>
          22 7 2 15 2.</_></rects>
      <tilted>0</tilted></_>
    <_>
      <rects>
        <_>
          20 12 2 12 -1.</_>
        <_>
          20 16 2 4 3.</_></rects>
      <tilted>0</tilted></_>
    <_>
      <rects>
        <_>
          21 1 2 2 -1.</_>
        <_>
          22 1 1 2 2.</_></rects>
      <tilted>0</tilted></_>
    <_>
      <rects>
        <_>
          21 5 2 7 -1.</_>
        <_>
          22 5 1 7 2.</_></rects>
      <tilted>0</tilted></_>
    <_>
      <rects>
        <_>
          21 7 2 2 -1.</_>
        <_>
          21 7 1 1 2.</_>
        <_>
          22 8 1 1 2.</_></rects>
      <tilted>0</tilted></_>
    <_>
      <rects>
        <_>
          21 8 2 12 -1.</_>
        <_>
          21 12 2 4 3.</_></rects>
      <tilted>0</tilted></_>
    <_>
      <rects>
        <_>
          21 14 2 8 -1.</_>
        <_>
          22 14 1 8 2.</_></rects>
      <tilted>0</tilted></_>
    <_>
      <rects>
        <_>
          22 0 2 6 -1.</_>
        <_>
          22 3 2 3 2.</_></rects>
      <tilted>0</tilted></_>
    <_>
      <rects>
        <_>
          22 18 2 4 -1.</_>
        <_>
          22 18 1 2 2.</_>
        <_>
          23 20 1 2 2.</_></rects>
      <tilted>0</tilted></_>
    <_>
      <rects>
        <_>
          23 0 1 14 -1.</_>
        <_>
          23 7 1 7 2.</_></rects>
      <tilted>0</tilted></_>
    <_>
      <rects>
        <_>
          23 0 1 21 -1.</_>
        <_>
          23 7 1 7 3.</_></rects>
      <tilted>0</tilted></_>
    <_>
      <rects>
        <_>
          23 0 1 24 -1.</_>
        <_>
          23 8 1 8 3.</_></rects>
      <tilted>0</tilted></_>
    <_>
      <rects>
        <_>
          23 1 1 6 -1.</_>
        <_>
          23 3 1 2 3.</_></rects>
      <tilted>0</tilted></_>
    <_>
      <rects>
        <_>
          23 1 1 15 -1.</_>
        <_>
          23 6 1 5 3.</_></rects>
      <tilted>0</tilted></_>
    <_>
      <rects>
        <_>
          23 5 1 18 -1.</_>
        <_>
          23 14 1 9 2.</_></rects>
      <tilted>0</tilted></_>
    <_>
      <rects>
        <_>
          23 20 1 4 -1.</_>
        <_>
          23 22 1 2 2.</_></rects>
      <tilted>0</tilted></_></features></cascade>
</opencv_storage>
