<?xml version="1.0"?>
<opencv_storage>
<cascade>
  <stageType>BOOST</stageType>
  <featureType>HAAR</featureType>
  <height>20</height>
  <width>20</width>
  <stageParams>
    <boostType>GAB</boostType>
    <minHitRate>9.9500000476837158e-01</minHitRate>
    <maxFalseAlarm>5.0000000000000000e-01</maxFalseAlarm>
    <weightTrimRate>9.4999999999999996e-01</weightTrimRate>
    <maxDepth>1</maxDepth>
    <maxWeakCount>100</maxWeakCount></stageParams>
  <featureParams>
    <maxCatCount>0</maxCatCount>
    <featSize>1</featSize>
    <mode>BASIC</mode></featureParams>
  <stageNum>16</stageNum>
  <stages>
    <!-- stage 0 -->
    <_>
      <maxWeakCount>7</maxWeakCount>
      <stageThreshold>-1.6782554388046265e+00</stageThreshold>
      <weakClassifiers>
        <_>
          <internalNodes>
            0 -1 143 1.3002297282218933e-01</internalNodes>
          <leafValues>
            -8.9907693862915039e-01 6.0952383279800415e-01</leafValues></_>
        <_>
          <internalNodes>
            0 -1 123 7.4410006403923035e-02</internalNodes>
          <leafValues>
            -5.9290826320648193e-01 7.3647725582122803e-01</leafValues></_>
        <_>
          <internalNodes>
            0 -1 152 7.9983152449131012e-02</internalNodes>
          <leafValues>
            -4.4633707404136658e-01 5.7882779836654663e-01</leafValues></_>
        <_>
          <internalNodes>
            0 -1 21 6.0917269438505173e-03</internalNodes>
          <leafValues>
            -2.7782252430915833e-01 6.9734340906143188e-01</leafValues></_>
        <_>
          <internalNodes>
            0 -1 89 -2.6159088592976332e-03</internalNodes>
          <leafValues>
            -8.4160435199737549e-01 2.2419998049736023e-01</leafValues></_>
        <_>
          <internalNodes>
            0 -1 59 2.4189570546150208e-01</internalNodes>
          <leafValues>
            1.5211379528045654e-01 -9.7638440132141113e-01</leafValues></_>
        <_>
          <internalNodes>
            0 -1 48 -3.3430298790335655e-03</internalNodes>
          <leafValues>
            -6.4918327331542969e-01 2.5221401453018188e-01</leafValues></_></weakClassifiers></_>
    <!-- stage 1 -->
    <_>
      <maxWeakCount>8</maxWeakCount>
      <stageThreshold>-1.5513828992843628e+00</stageThreshold>
      <weakClassifiers>
        <_>
          <internalNodes>
            0 -1 109 -1.1360666155815125e-01</internalNodes>
          <leafValues>
            7.0940172672271729e-01 -8.2421422004699707e-01</leafValues></_>
        <_>
          <internalNodes>
            0 -1 137 -8.1741794943809509e-02</internalNodes>
          <leafValues>
            3.1155687570571899e-01 -6.6806101799011230e-01</leafValues></_>
        <_>
          <internalNodes>
            0 -1 174 -4.1051479056477547e-03</internalNodes>
          <leafValues>
            5.9811365604400635e-01 -3.4791579842567444e-01</leafValues></_>
        <_>
          <internalNodes>
            0 -1 98 -1.0817258618772030e-02</internalNodes>
          <leafValues>
            3.1793233752250671e-01 -4.1836374998092651e-01</leafValues></_>
        <_>
          <internalNodes>
            0 -1 127 1.4876449480652809e-02</internalNodes>
          <leafValues>
            -2.6518505811691284e-01 5.6836837530136108e-01</leafValues></_>
        <_>
          <internalNodes>
            0 -1 101 6.3523603603243828e-04</internalNodes>
          <leafValues>
            1.9787622988224030e-01 -7.2126865386962891e-01</leafValues></_>
        <_>
          <internalNodes>
            0 -1 134 -2.0926102995872498e-02</internalNodes>
          <leafValues>
            6.3475930690765381e-01 -1.9816993176937103e-01</leafValues></_>
        <_>
          <internalNodes>
            0 -1 155 -1.0815043933689594e-02</internalNodes>
          <leafValues>
            2.3635455965995789e-01 -5.3523635864257812e-01</leafValues></_></weakClassifiers></_>
    <!-- stage 2 -->
    <_>
      <maxWeakCount>8</maxWeakCount>
      <stageThreshold>-1.7906179428100586e+00</stageThreshold>
      <weakClassifiers>
        <_>
          <internalNodes>
            0 -1 110 1.2161728739738464e-01</internalNodes>
          <leafValues>
            -8.3924347162246704e-01 6.0839158296585083e-01</leafValues></_>
        <_>
          <internalNodes>
            0 -1 122 1.3840050995349884e-01</internalNodes>
          <leafValues>
            -4.8222622275352478e-01 6.0547840595245361e-01</leafValues></_>
        <_>
          <internalNodes>
            0 -1 113 5.1825687289237976e-02</internalNodes>
          <leafValues>
            -2.1941286325454712e-01 6.7652869224548340e-01</leafValues></_>
        <_>
          <internalNodes>
            0 -1 121 8.6238339543342590e-02</internalNodes>
          <leafValues>
            -1.9791339337825775e-01 7.2976648807525635e-01</leafValues></_>
        <_>
          <internalNodes>
            0 -1 24 5.7432334870100021e-03</internalNodes>
          <leafValues>
            -3.4403645992279053e-01 4.4712463021278381e-01</leafValues></_>
        <_>
          <internalNodes>
            0 -1 30 -3.5633242223411798e-03</internalNodes>
          <leafValues>
            4.3860483169555664e-01 -3.2031005620956421e-01</leafValues></_>
        <_>
          <internalNodes>
            0 -1 99 -2.6076480746269226e-02</internalNodes>
          <leafValues>
            5.4132640361785889e-01 -2.1813304722309113e-01</leafValues></_>
        <_>
          <internalNodes>
            0 -1 81 -7.9961335286498070e-03</internalNodes>
          <leafValues>
            -7.1941840648651123e-01 1.8005253374576569e-01</leafValues></_></weakClassifiers></_>
    <!-- stage 3 -->
    <_>
      <maxWeakCount>8</maxWeakCount>
      <stageThreshold>-1.6052273511886597e+00</stageThreshold>
      <weakClassifiers>
        <_>
          <internalNodes>
            0 -1 70 -5.9420123696327209e-02</internalNodes>
          <leafValues>
            3.5064935684204102e-01 -8.2510411739349365e-01</leafValues></_>
        <_>
          <internalNodes>
            0 -1 118 -4.1817328892648220e-03</internalNodes>
          <leafValues>
            5.2309668064117432e-01 -4.7602874040603638e-01</leafValues></_>
        <_>
          <internalNodes>
            0 -1 162 7.2798565030097961e-02</internalNodes>
          <leafValues>
            -3.2973781228065491e-01 5.1856487989425659e-01</leafValues></_>
        <_>
          <internalNodes>
            0 -1 61 2.1416576579213142e-02</internalNodes>
          <leafValues>
            -4.1034808754920959e-01 2.9126194119453430e-01</leafValues></_>
        <_>
          <internalNodes>
            0 -1 2 3.8602054119110107e-03</internalNodes>
          <leafValues>
            -2.8435459733009338e-01 4.8326757550239563e-01</leafValues></_>
        <_>
          <internalNodes>
            0 -1 161 -1.0910745710134506e-01</internalNodes>
          <leafValues>
            6.0732305049896240e-01 -2.1026238799095154e-01</leafValues></_>
        <_>
          <internalNodes>
            0 -1 138 6.7078862339258194e-03</internalNodes>
          <leafValues>
            -2.9841649532318115e-01 4.2918872833251953e-01</leafValues></_>
        <_>
          <internalNodes>
            0 -1 58 1.3385098427534103e-02</internalNodes>
          <leafValues>
            -2.0019036531448364e-01 5.9623855352401733e-01</leafValues></_></weakClassifiers></_>
    <!-- stage 4 -->
    <_>
      <maxWeakCount>10</maxWeakCount>
      <stageThreshold>-1.8567154407501221e+00</stageThreshold>
      <weakClassifiers>
        <_>
          <internalNodes>
            0 -1 145 1.3294225931167603e-01</internalNodes>
          <leafValues>
            -8.1850743293762207e-01 2.3749999701976776e-01</leafValues></_>
        <_>
          <internalNodes>
            0 -1 139 -3.8701228797435760e-02</internalNodes>
          <leafValues>
            5.5347096920013428e-01 -4.6540650725364685e-01</leafValues></_>
        <_>
          <internalNodes>
            0 -1 146 -5.7240962982177734e-02</internalNodes>
          <leafValues>
            6.0458642244338989e-01 -3.1043666601181030e-01</leafValues></_>
        <_>
          <internalNodes>
            0 -1 57 5.2263764664530754e-03</internalNodes>
          <leafValues>
            -1.8949930369853973e-01 5.8624744415283203e-01</leafValues></_>
        <_>
          <internalNodes>
            0 -1 100 3.5046264529228210e-03</internalNodes>
          <leafValues>
            1.5351547300815582e-01 -8.7677186727523804e-01</leafValues></_>
        <_>
          <internalNodes>
            0 -1 103 -4.6935415593907237e-04</internalNodes>
          <leafValues>
            -6.4802807569503784e-01 1.7176088690757751e-01</leafValues></_>
        <_>
          <internalNodes>
            0 -1 20 8.4252860397100449e-03</internalNodes>
          <leafValues>
            -2.1755087375640869e-01 6.0057765245437622e-01</leafValues></_>
        <_>
          <internalNodes>
            0 -1 8 -7.5348583050072193e-03</internalNodes>
          <leafValues>
            6.0180336236953735e-01 -1.8234083056449890e-01</leafValues></_>
        <_>
          <internalNodes>
            0 -1 79 -3.6166869103908539e-03</internalNodes>
          <leafValues>
            -6.6319465637207031e-01 1.8902492523193359e-01</leafValues></_>
        <_>
          <internalNodes>
            0 -1 114 1.3010586611926556e-02</internalNodes>
          <leafValues>
            -1.8727509677410126e-01 6.8631136417388916e-01</leafValues></_></weakClassifiers></_>
    <!-- stage 5 -->
    <_>
      <maxWeakCount>11</maxWeakCount>
      <stageThreshold>-1.9559621810913086e+00</stageThreshold>
      <weakClassifiers>
        <_>
          <internalNodes>
            0 -1 133 -1.2878882884979248e-01</internalNodes>
          <leafValues>
            1.5231788158416748e-01 -8.0522567033767700e-01</leafValues></_>
        <_>
          <internalNodes>
            0 -1 28 -6.4511327072978020e-03</internalNodes>
          <leafValues>
            2.6226073503494263e-01 -4.6157786250114441e-01</leafValues></_>
        <_>
          <internalNodes>
            0 -1 18 -9.1490551829338074e-02</internalNodes>
          <leafValues>
            2.4291075766086578e-01 -4.5639088749885559e-01</leafValues></_>
        <_>
          <internalNodes>
            0 -1 173 -9.0043051168322563e-03</internalNodes>
          <leafValues>
            4.9759858846664429e-01 -2.2237731516361237e-01</leafValues></_>
        <_>
          <internalNodes>
            0 -1 95 1.2982081621885300e-02</internalNodes>
          <leafValues>
            -1.4730139076709747e-01 6.5114885568618774e-01</leafValues></_>
        <_>
          <internalNodes>
            0 -1 102 -6.1596522573381662e-04</internalNodes>
          <leafValues>
            -6.4083129167556763e-01 1.7375367879867554e-01</leafValues></_>
        <_>
          <internalNodes>
            0 -1 169 -6.0637723654508591e-03</internalNodes>
          <leafValues>
            5.1279461383819580e-01 -1.8663586676120758e-01</leafValues></_>
        <_>
          <internalNodes>
            0 -1 68 -7.1598999202251434e-03</internalNodes>
          <leafValues>
            3.9845710992813110e-01 -2.4419294297695160e-01</leafValues></_>
        <_>
          <internalNodes>
            0 -1 52 -2.0332224667072296e-03</internalNodes>
          <leafValues>
            3.5185992717742920e-01 -3.4309440851211548e-01</leafValues></_>
        <_>
          <internalNodes>
            0 -1 140 -1.7873835749924183e-03</internalNodes>
          <leafValues>
            -7.7517229318618774e-01 1.3395985960960388e-01</leafValues></_>
        <_>
          <internalNodes>
            0 -1 7 7.0525505580008030e-03</internalNodes>
          <leafValues>
            -1.9532963633537292e-01 5.8064877986907959e-01</leafValues></_></weakClassifiers></_>
    <!-- stage 6 -->
    <_>
      <maxWeakCount>12</maxWeakCount>
      <stageThreshold>-1.6487455368041992e+00</stageThreshold>
      <weakClassifiers>
        <_>
          <internalNodes>
            0 -1 44 -3.0857032164931297e-02</internalNodes>
          <leafValues>
            5.7575756311416626e-01 -7.7501416206359863e-01</leafValues></_>
        <_>
          <internalNodes>
            0 -1 136 8.6336508393287659e-02</internalNodes>
          <leafValues>
            -4.1226774454116821e-01 3.8527721166610718e-01</leafValues></_>
        <_>
          <internalNodes>
            0 -1 115 -2.6242483407258987e-02</internalNodes>
          <leafValues>
            3.8217741250991821e-01 -2.4309287965297699e-01</leafValues></_>
        <_>
          <internalNodes>
            0 -1 108 1.3431185483932495e-01</internalNodes>
          <leafValues>
            -1.9405096769332886e-01 6.2268060445785522e-01</leafValues></_>
        <_>
          <internalNodes>
            0 -1 166 -7.6130786910653114e-03</internalNodes>
          <leafValues>
            3.5874775052070618e-01 -2.6411831378936768e-01</leafValues></_>
        <_>
          <internalNodes>
            0 -1 0 -7.2664110921323299e-03</internalNodes>
          <leafValues>
            5.0377631187438965e-01 -2.0772010087966919e-01</leafValues></_>
        <_>
          <internalNodes>
            0 -1 132 -7.2530616307631135e-04</internalNodes>
          <leafValues>
            -6.1029577255249023e-01 1.6796560585498810e-01</leafValues></_>
        <_>
          <internalNodes>
            0 -1 86 1.9385379273444414e-03</internalNodes>
          <leafValues>
            1.4105883240699768e-01 -7.7381855249404907e-01</leafValues></_>
        <_>
          <internalNodes>
            0 -1 19 1.9860453903675079e-03</internalNodes>
          <leafValues>
            -1.9804951548576355e-01 5.0988662242889404e-01</leafValues></_>
        <_>
          <internalNodes>
            0 -1 15 1.4432250522077084e-02</internalNodes>
          <leafValues>
            -1.3287173211574554e-01 7.1998000144958496e-01</leafValues></_>
        <_>
          <internalNodes>
            0 -1 10 1.0090195573866367e-03</internalNodes>
          <leafValues>
            -4.2640316486358643e-01 2.3052388429641724e-01</leafValues></_>
        <_>
          <internalNodes>
            0 -1 46 3.2185954041779041e-03</internalNodes>
          <leafValues>
            -1.8299768865108490e-01 5.5524450540542603e-01</leafValues></_></weakClassifiers></_>
    <!-- stage 7 -->
    <_>
      <maxWeakCount>12</maxWeakCount>
      <stageThreshold>-2.0460724830627441e+00</stageThreshold>
      <weakClassifiers>
        <_>
          <internalNodes>
            0 -1 92 -1.0546925663948059e-01</internalNodes>
          <leafValues>
            3.1531530618667603e-01 -7.9350346326828003e-01</leafValues></_>
        <_>
          <internalNodes>
            0 -1 112 1.2533167004585266e-01</internalNodes>
          <leafValues>
            -4.2037653923034668e-01 3.5291162133216858e-01</leafValues></_>
        <_>
          <internalNodes>
            0 -1 107 4.4232462532818317e-03</internalNodes>
          <leafValues>
            2.0956970751285553e-01 -4.6822851896286011e-01</leafValues></_>
        <_>
          <internalNodes>
            0 -1 105 9.5387408509850502e-03</internalNodes>
          <leafValues>
            -1.8483412265777588e-01 5.7498258352279663e-01</leafValues></_>
        <_>
          <internalNodes>
            0 -1 37 9.1778010129928589e-02</internalNodes>
          <leafValues>
            1.5671420097351074e-01 -6.9772791862487793e-01</leafValues></_>
        <_>
          <internalNodes>
            0 -1 77 2.3253678809851408e-03</internalNodes>
          <leafValues>
            1.9241686165332794e-01 -6.7396312952041626e-01</leafValues></_>
        <_>
          <internalNodes>
            0 -1 80 -6.2011890113353729e-02</internalNodes>
          <leafValues>
            5.8303856849670410e-01 -1.8440823256969452e-01</leafValues></_>
        <_>
          <internalNodes>
            0 -1 125 -2.0672967657446861e-03</internalNodes>
          <leafValues>
            -5.8600503206253052e-01 1.5736114978790283e-01</leafValues></_>
        <_>
          <internalNodes>
            0 -1 117 -2.7538030408322811e-03</internalNodes>
          <leafValues>
            4.4504374265670776e-01 -1.9779540598392487e-01</leafValues></_>
        <_>
          <internalNodes>
            0 -1 95 -8.4322933107614517e-03</internalNodes>
          <leafValues>
            6.4130467176437378e-01 -1.4473456144332886e-01</leafValues></_>
        <_>
          <internalNodes>
            0 -1 78 -4.8171170055866241e-04</internalNodes>
          <leafValues>
            -6.1341792345046997e-01 1.6962666809558868e-01</leafValues></_>
        <_>
          <internalNodes>
            0 -1 130 -2.5165518745779991e-03</internalNodes>
          <leafValues>
            2.4450774490833282e-01 -3.5239127278327942e-01</leafValues></_></weakClassifiers></_>
    <!-- stage 8 -->
    <_>
      <maxWeakCount>12</maxWeakCount>
      <stageThreshold>-1.7466907501220703e+00</stageThreshold>
      <weakClassifiers>
        <_>
          <internalNodes>
            0 -1 142 -9.9979102611541748e-02</internalNodes>
          <leafValues>
            5.1948051899671555e-02 -7.9773944616317749e-01</leafValues></_>
        <_>
          <internalNodes>
            0 -1 40 1.0563733056187630e-02</internalNodes>
          <leafValues>
            1.1417347006499767e-02 -5.9249055385589600e-01</leafValues></_>
        <_>
          <internalNodes>
            0 -1 157 2.5433365954086185e-04</internalNodes>
          <leafValues>
            -4.0074470639228821e-01 2.2214409708976746e-01</leafValues></_>
        <_>
          <internalNodes>
            0 -1 51 1.9634261727333069e-02</internalNodes>
          <leafValues>
            -3.9630916714668274e-01 2.2289116680622101e-01</leafValues></_>
        <_>
          <internalNodes>
            0 -1 74 -2.6464285328984261e-03</internalNodes>
          <leafValues>
            2.9730907082557678e-01 -3.1359869241714478e-01</leafValues></_>
        <_>
          <internalNodes>
            0 -1 147 -2.5920725893229246e-03</internalNodes>
          <leafValues>
            -6.0041868686676025e-01 1.7485997080802917e-01</leafValues></_>
        <_>
          <internalNodes>
            0 -1 4 -2.8838147409260273e-04</internalNodes>
          <leafValues>
            -5.2856653928756714e-01 1.6610777378082275e-01</leafValues></_>
        <_>
          <internalNodes>
            0 -1 11 1.2292290339246392e-03</internalNodes>
          <leafValues>
            -2.2872671484947205e-01 4.3581670522689819e-01</leafValues></_>
        <_>
          <internalNodes>
            0 -1 12 -1.2638432672247291e-03</internalNodes>
          <leafValues>
            4.7972577810287476e-01 -2.2137790918350220e-01</leafValues></_>
        <_>
          <internalNodes>
            0 -1 25 5.2466150373220444e-04</internalNodes>
          <leafValues>
            1.5287882089614868e-01 -6.0114663839340210e-01</leafValues></_>
        <_>
          <internalNodes>
            0 -1 75 -5.5709600448608398e-02</internalNodes>
          <leafValues>
            -7.7032232284545898e-01 9.7647964954376221e-02</leafValues></_>
        <_>
          <internalNodes>
            0 -1 82 2.0004440099000931e-02</internalNodes>
          <leafValues>
            9.2660561203956604e-02 -8.1678187847137451e-01</leafValues></_></weakClassifiers></_>
    <!-- stage 9 -->
    <_>
      <maxWeakCount>11</maxWeakCount>
      <stageThreshold>-1.7168123722076416e+00</stageThreshold>
      <weakClassifiers>
        <_>
          <internalNodes>
            0 -1 93 -5.4628595709800720e-02</internalNodes>
          <leafValues>
            1.8965516984462738e-01 -7.8824895620346069e-01</leafValues></_>
        <_>
          <internalNodes>
            0 -1 33 5.9741437435150146e-03</internalNodes>
          <leafValues>
            -3.7238442897796631e-01 5.3925961256027222e-01</leafValues></_>
        <_>
          <internalNodes>
            0 -1 53 -7.4786931509152055e-04</internalNodes>
          <leafValues>
            2.1271131932735443e-01 -5.0294762849807739e-01</leafValues></_>
        <_>
          <internalNodes>
            0 -1 41 -2.7440818957984447e-03</internalNodes>
          <leafValues>
            3.1369653344154358e-01 -3.3372673392295837e-01</leafValues></_>
        <_>
          <internalNodes>
            0 -1 3 4.0798943489789963e-02</internalNodes>
          <leafValues>
            -5.0303900241851807e-01 2.9786527156829834e-01</leafValues></_>
        <_>
          <internalNodes>
            0 -1 9 -7.7394032850861549e-03</internalNodes>
          <leafValues>
            4.4814795255661011e-01 -2.1130129694938660e-01</leafValues></_>
        <_>
          <internalNodes>
            0 -1 13 7.3213907890021801e-03</internalNodes>
          <leafValues>
            -2.3079314827919006e-01 4.0245074033737183e-01</leafValues></_>
        <_>
          <internalNodes>
            0 -1 163 7.7976343163754791e-05</internalNodes>
          <leafValues>
            -3.7781187891960144e-01 2.3308545351028442e-01</leafValues></_>
        <_>
          <internalNodes>
            0 -1 116 -6.8585586268454790e-04</internalNodes>
          <leafValues>
            -5.1997673511505127e-01 1.7885303497314453e-01</leafValues></_>
        <_>
          <internalNodes>
            0 -1 150 4.0333252400159836e-03</internalNodes>
          <leafValues>
            -1.5073214471340179e-01 6.8801736831665039e-01</leafValues></_>
        <_>
          <internalNodes>
            0 -1 71 1.5648783883079886e-03</internalNodes>
          <leafValues>
            1.6351819038391113e-01 -6.3888978958129883e-01</leafValues></_></weakClassifiers></_>
    <!-- stage 10 -->
    <_>
      <maxWeakCount>11</maxWeakCount>
      <stageThreshold>-1.5448242425918579e+00</stageThreshold>
      <weakClassifiers>
        <_>
          <internalNodes>
            0 -1 144 1.3776651024818420e-01</internalNodes>
          <leafValues>
            -7.9404759407043457e-01 6.4516128040850163e-03</leafValues></_>
        <_>
          <internalNodes>
            0 -1 39 -1.3232931494712830e-02</internalNodes>
          <leafValues>
            1.2589672207832336e-01 -5.3524065017700195e-01</leafValues></_>
        <_>
          <internalNodes>
            0 -1 84 1.6319681890308857e-03</internalNodes>
          <leafValues>
            1.3227663934230804e-01 -6.1968803405761719e-01</leafValues></_>
        <_>
          <internalNodes>
            0 -1 38 1.3702902942895889e-03</internalNodes>
          <leafValues>
            -2.7994811534881592e-01 3.4077873826026917e-01</leafValues></_>
        <_>
          <internalNodes>
            0 -1 160 -3.1719023827463388e-03</internalNodes>
          <leafValues>
            5.2190738916397095e-01 -1.7004884779453278e-01</leafValues></_>
        <_>
          <internalNodes>
            0 -1 90 6.3100754050537944e-04</internalNodes>
          <leafValues>
            2.1368908882141113e-01 -4.3349850177764893e-01</leafValues></_>
        <_>
          <internalNodes>
            0 -1 94 -9.0984832495450974e-03</internalNodes>
          <leafValues>
            4.8010066151618958e-01 -2.3193775117397308e-01</leafValues></_>
        <_>
          <internalNodes>
            0 -1 91 -2.1271416917443275e-03</internalNodes>
          <leafValues>
            -6.4781683683395386e-01 2.0860835909843445e-01</leafValues></_>
        <_>
          <internalNodes>
            0 -1 171 1.9711505156010389e-03</internalNodes>
          <leafValues>
            -1.9395811855792999e-01 5.1836180686950684e-01</leafValues></_>
        <_>
          <internalNodes>
            0 -1 35 7.0402286946773529e-02</internalNodes>
          <leafValues>
            1.2597425282001495e-01 -8.7221610546112061e-01</leafValues></_>
        <_>
          <internalNodes>
            0 -1 14 -1.1668412946164608e-02</internalNodes>
          <leafValues>
            -6.4091831445693970e-01 9.1042593121528625e-02</leafValues></_></weakClassifiers></_>
    <!-- stage 11 -->
    <_>
      <maxWeakCount>12</maxWeakCount>
      <stageThreshold>-1.5154180526733398e+00</stageThreshold>
      <weakClassifiers>
        <_>
          <internalNodes>
            0 -1 159 -7.8570293262600899e-03</internalNodes>
          <leafValues>
            7.1999996900558472e-02 -7.8479534387588501e-01</leafValues></_>
        <_>
          <internalNodes>
            0 -1 66 1.0341985523700714e-01</internalNodes>
          <leafValues>
            -4.4709977507591248e-01 3.2109713554382324e-01</leafValues></_>
        <_>
          <internalNodes>
            0 -1 76 -1.1955458903685212e-03</internalNodes>
          <leafValues>
            4.1580790281295776e-01 -2.3149344325065613e-01</leafValues></_>
        <_>
          <internalNodes>
            0 -1 32 5.4513909853994846e-03</internalNodes>
          <leafValues>
            1.6196767985820770e-01 -5.3671079874038696e-01</leafValues></_>
        <_>
          <internalNodes>
            0 -1 23 1.6800230368971825e-03</internalNodes>
          <leafValues>
            -2.4507081508636475e-01 3.4854683279991150e-01</leafValues></_>
        <_>
          <internalNodes>
            0 -1 22 -1.2441598810255527e-03</internalNodes>
          <leafValues>
            5.8289772272109985e-01 -1.9216638803482056e-01</leafValues></_>
        <_>
          <internalNodes>
            0 -1 55 -6.6347837448120117e-02</internalNodes>
          <leafValues>
            2.8986787796020508e-01 -3.5225015878677368e-01</leafValues></_>
        <_>
          <internalNodes>
            0 -1 164 2.2465442307293415e-03</internalNodes>
          <leafValues>
            -1.4161041378974915e-01 6.5659344196319580e-01</leafValues></_>
        <_>
          <internalNodes>
            0 -1 135 -6.3083663582801819e-02</internalNodes>
          <leafValues>
            6.4929991960525513e-01 -1.0533822327852249e-01</leafValues></_>
        <_>
          <internalNodes>
            0 -1 104 -2.0785569213330746e-03</internalNodes>
          <leafValues>
            3.2410505414009094e-01 -2.8921517729759216e-01</leafValues></_>
        <_>
          <internalNodes>
            0 -1 64 1.2770461034961045e-04</internalNodes>
          <leafValues>
            -6.0497891902923584e-01 1.5190143883228302e-01</leafValues></_>
        <_>
          <internalNodes>
            0 -1 158 3.7626035045832396e-03</internalNodes>
          <leafValues>
            -2.7075013518333435e-01 3.6901164054870605e-01</leafValues></_></weakClassifiers></_>
    <!-- stage 12 -->
    <_>
      <maxWeakCount>11</maxWeakCount>
      <stageThreshold>-1.6191790103912354e+00</stageThreshold>
      <weakClassifiers>
        <_>
          <internalNodes>
            0 -1 165 4.8373255878686905e-02</internalNodes>
          <leafValues>
            -7.8192418813705444e-01 6.6666670143604279e-02</leafValues></_>
        <_>
          <internalNodes>
            0 -1 129 2.2319350391626358e-02</internalNodes>
          <leafValues>
            -4.1566982865333557e-01 2.8965148329734802e-01</leafValues></_>
        <_>
          <internalNodes>
            0 -1 151 -2.1372754126787186e-03</internalNodes>
          <leafValues>
            5.1101785898208618e-01 -1.8625636398792267e-01</leafValues></_>
        <_>
          <internalNodes>
            0 -1 87 -8.5302506340667605e-04</internalNodes>
          <leafValues>
            -5.4297667741775513e-01 1.5579317510128021e-01</leafValues></_>
        <_>
          <internalNodes>
            0 -1 88 4.6157551696524024e-04</internalNodes>
          <leafValues>
            2.4846482276916504e-01 -3.9676284790039062e-01</leafValues></_>
        <_>
          <internalNodes>
            0 -1 168 6.0333348810672760e-03</internalNodes>
          <leafValues>
            -2.1997553110122681e-01 4.7073993086814880e-01</leafValues></_>
        <_>
          <internalNodes>
            0 -1 148 7.8537017107009888e-03</internalNodes>
          <leafValues>
            1.3535325229167938e-01 -8.9275127649307251e-01</leafValues></_>
        <_>
          <internalNodes>
            0 -1 1 4.1515752673149109e-03</internalNodes>
          <leafValues>
            -2.1295602619647980e-01 4.7727745771408081e-01</leafValues></_>
        <_>
          <internalNodes>
            0 -1 85 4.1504367254674435e-03</internalNodes>
          <leafValues>
            1.5644060075283051e-01 -6.3046365976333618e-01</leafValues></_>
        <_>
          <internalNodes>
            0 -1 29 -1.2082273606210947e-03</internalNodes>
          <leafValues>
            3.5365983843803406e-01 -2.5561684370040894e-01</leafValues></_>
        <_>
          <internalNodes>
            0 -1 36 5.1517374813556671e-02</internalNodes>
          <leafValues>
            8.7998233735561371e-02 -7.7491188049316406e-01</leafValues></_></weakClassifiers></_>
    <!-- stage 13 -->
    <_>
      <maxWeakCount>13</maxWeakCount>
      <stageThreshold>-1.6570088863372803e+00</stageThreshold>
      <weakClassifiers>
        <_>
          <internalNodes>
            0 -1 170 -1.3738371431827545e-02</internalNodes>
          <leafValues>
            3.0434781312942505e-01 -7.6670444011688232e-01</leafValues></_>
        <_>
          <internalNodes>
            0 -1 131 1.3447916507720947e-01</internalNodes>
          <leafValues>
            -3.5672801733016968e-01 4.1974851489067078e-01</leafValues></_>
        <_>
          <internalNodes>
            0 -1 43 -4.1845184750854969e-03</internalNodes>
          <leafValues>
            2.5280731916427612e-01 -3.1791377067565918e-01</leafValues></_>
        <_>
          <internalNodes>
            0 -1 31 -4.1021867655217648e-03</internalNodes>
          <leafValues>
            2.4699860811233521e-01 -3.2885560393333435e-01</leafValues></_>
        <_>
          <internalNodes>
            0 -1 6 -5.8341948315501213e-03</internalNodes>
          <leafValues>
            -7.6850587129592896e-01 1.0282907634973526e-01</leafValues></_>
        <_>
          <internalNodes>
            0 -1 56 3.3758641220629215e-03</internalNodes>
          <leafValues>
            -1.5614226460456848e-01 5.1927167177200317e-01</leafValues></_>
        <_>
          <internalNodes>
            0 -1 73 -9.0427248505875468e-04</internalNodes>
          <leafValues>
            4.4317176938056946e-01 -1.9120284914970398e-01</leafValues></_>
        <_>
          <internalNodes>
            0 -1 50 3.1295075314119458e-04</internalNodes>
          <leafValues>
            -3.5514748096466064e-01 2.1697944402694702e-01</leafValues></_>
        <_>
          <internalNodes>
            0 -1 54 -6.7838130053132772e-04</internalNodes>
          <leafValues>
            -4.2897522449493408e-01 1.7913968861103058e-01</leafValues></_>
        <_>
          <internalNodes>
            0 -1 126 2.2090191487222910e-03</internalNodes>
          <leafValues>
            8.8979780673980713e-02 -8.1995052099227905e-01</leafValues></_>
        <_>
          <internalNodes>
            0 -1 34 8.0028350930660963e-04</internalNodes>
          <leafValues>
            -2.1940605342388153e-01 3.6643108725547791e-01</leafValues></_>
        <_>
          <internalNodes>
            0 -1 17 -1.0659654624760151e-02</internalNodes>
          <leafValues>
            5.1693385839462280e-01 -1.5978312492370605e-01</leafValues></_>
        <_>
          <internalNodes>
            0 -1 42 1.8457329133525491e-03</internalNodes>
          <leafValues>
            2.5320509076118469e-01 -3.5791978240013123e-01</leafValues></_></weakClassifiers></_>
    <!-- stage 14 -->
    <_>
      <maxWeakCount>13</maxWeakCount>
      <stageThreshold>-1.6159509420394897e+00</stageThreshold>
      <weakClassifiers>
        <_>
          <internalNodes>
            0 -1 45 8.7484316900372505e-03</internalNodes>
          <leafValues>
            -7.7406340837478638e-01 1.0000000149011612e-01</leafValues></_>
        <_>
          <internalNodes>
            0 -1 72 7.0748408325016499e-03</internalNodes>
          <leafValues>
            -3.5087788105010986e-01 6.0715854167938232e-01</leafValues></_>
        <_>
          <internalNodes>
            0 -1 153 1.0931549966335297e-01</internalNodes>
          <leafValues>
            -2.8337410092353821e-01 3.4804305434226990e-01</leafValues></_>
        <_>
          <internalNodes>
            0 -1 167 2.3396355099976063e-03</internalNodes>
          <leafValues>
            -2.1363168954849243e-01 4.0647587180137634e-01</leafValues></_>
        <_>
          <internalNodes>
            0 -1 49 1.3977605849504471e-03</internalNodes>
          <leafValues>
            -1.3080799579620361e-01 5.0086504220962524e-01</leafValues></_>
        <_>
          <internalNodes>
            0 -1 119 5.4539047414436936e-04</internalNodes>
          <leafValues>
            1.2051900476217270e-01 -6.7495107650756836e-01</leafValues></_>
        <_>
          <internalNodes>
            0 -1 27 1.5478831715881824e-02</internalNodes>
          <leafValues>
            -1.6690005362033844e-01 4.3711391091346741e-01</leafValues></_>
        <_>
          <internalNodes>
            0 -1 83 8.2417589146643877e-04</internalNodes>
          <leafValues>
            1.5589526295661926e-01 -5.1610600948333740e-01</leafValues></_>
        <_>
          <internalNodes>
            0 -1 5 1.1681674420833588e-01</internalNodes>
          <leafValues>
            1.1406881362199783e-01 -6.6346478462219238e-01</leafValues></_>
        <_>
          <internalNodes>
            0 -1 124 -1.1376668699085712e-03</internalNodes>
          <leafValues>
            3.1703352928161621e-01 -2.3197212815284729e-01</leafValues></_>
        <_>
          <internalNodes>
            0 -1 65 1.6189742833375931e-02</internalNodes>
          <leafValues>
            -1.9767099618911743e-01 3.6701628565788269e-01</leafValues></_>
        <_>
          <internalNodes>
            0 -1 156 5.3858791943639517e-04</internalNodes>
          <leafValues>
            1.3169164955615997e-01 -5.1958674192428589e-01</leafValues></_>
        <_>
          <internalNodes>
            0 -1 154 -1.3392914552241564e-03</internalNodes>
          <leafValues>
            3.7332463264465332e-01 -1.9171662628650665e-01</leafValues></_></weakClassifiers></_>
    <!-- stage 15 -->
    <_>
      <maxWeakCount>17</maxWeakCount>
      <stageThreshold>-1.7134144306182861e+00</stageThreshold>
      <weakClassifiers>
        <_>
          <internalNodes>
            0 -1 172 1.6340436413884163e-02</internalNodes>
          <leafValues>
            -7.6896554231643677e-01 5.2631579339504242e-02</leafValues></_>
        <_>
          <internalNodes>
            0 -1 60 2.2597638890147209e-02</internalNodes>
          <leafValues>
            -5.4654252529144287e-01 2.9639884829521179e-02</leafValues></_>
        <_>
          <internalNodes>
            0 -1 141 3.0754723120480776e-03</internalNodes>
          <leafValues>
            -3.4540471434593201e-01 2.3745365440845490e-01</leafValues></_>
        <_>
          <internalNodes>
            0 -1 120 2.4157422780990601e-01</internalNodes>
          <leafValues>
            -2.7313384413719177e-01 2.7560803294181824e-01</leafValues></_>
        <_>
          <internalNodes>
            0 -1 97 -6.1029731296002865e-04</internalNodes>
          <leafValues>
            2.4272654950618744e-01 -3.0198690295219421e-01</leafValues></_>
        <_>
          <internalNodes>
            0 -1 47 1.3124682009220123e-02</internalNodes>
          <leafValues>
            -1.4292210340499878e-01 6.2283879518508911e-01</leafValues></_>
        <_>
          <internalNodes>
            0 -1 128 -2.2020027972757816e-03</internalNodes>
          <leafValues>
            -5.6097352504730225e-01 1.4368155598640442e-01</leafValues></_>
        <_>
          <internalNodes>
            0 -1 16 1.4800743199884892e-02</internalNodes>
          <leafValues>
            -1.1551117151975632e-01 6.8948000669479370e-01</leafValues></_>
        <_>
          <internalNodes>
            0 -1 63 2.9852021485567093e-02</internalNodes>
          <leafValues>
            -1.0070955008268356e-01 7.0742416381835938e-01</leafValues></_>
        <_>
          <internalNodes>
            0 -1 149 -6.7975120618939400e-03</internalNodes>
          <leafValues>
            4.8852196335792542e-01 -1.4104141294956207e-01</leafValues></_>
        <_>
          <internalNodes>
            0 -1 96 -9.8613370209932327e-03</internalNodes>
          <leafValues>
            5.1333034038543701e-01 -1.3654591143131256e-01</leafValues></_>
        <_>
          <internalNodes>
            0 -1 106 3.2845987007021904e-03</internalNodes>
          <leafValues>
            1.7345851659774780e-01 -4.2213308811187744e-01</leafValues></_>
        <_>
          <internalNodes>
            0 -1 111 -1.1891282349824905e-01</internalNodes>
          <leafValues>
            2.5992053747177124e-01 -3.0595853924751282e-01</leafValues></_>
        <_>
          <internalNodes>
            0 -1 67 3.5548571497201920e-02</internalNodes>
          <leafValues>
            -1.1643332242965698e-01 6.4390355348587036e-01</leafValues></_>
        <_>
          <internalNodes>
            0 -1 62 -3.1421559397131205e-03</internalNodes>
          <leafValues>
            3.3646804094314575e-01 -3.0644822120666504e-01</leafValues></_>
        <_>
          <internalNodes>
            0 -1 69 -3.7113599479198456e-02</internalNodes>
          <leafValues>
            5.9158021211624146e-01 -1.5287381410598755e-01</leafValues></_>
        <_>
          <internalNodes>
            0 -1 26 1.1114013614133000e-03</internalNodes>
          <leafValues>
            -2.7184039354324341e-01 2.7413582801818848e-01</leafValues></_></weakClassifiers></_></stages>
  <features>
    <_>
      <rects>
        <_>
          0 0 10 2 -1.</_>
        <_>
          0 0 5 1 2.</_>
        <_>
          5 1 5 1 2.</_></rects>
      <tilted>0</tilted></_>
    <_>
      <rects>
        <_>
          0 1 2 6 -1.</_>
        <_>
          0 1 1 3 2.</_>
        <_>
          1 4 1 3 2.</_></rects>
      <tilted>0</tilted></_>
    <_>
      <rects>
        <_>
          0 2 2 6 -1.</_>
        <_>
          1 2 1 6 2.</_></rects>
      <tilted>0</tilted></_>
    <_>
      <rects>
        <_>
          0 2 18 8 -1.</_>
        <_>
          0 6 18 4 2.</_></rects>
      <tilted>0</tilted></_>
    <_>
      <rects>
        <_>
          0 3 1 2 -1.</_>
        <_>
          0 4 1 1 2.</_></rects>
      <tilted>0</tilted></_>
    <_>
      <rects>
        <_>
          0 3 16 8 -1.</_>
        <_>
          0 3 8 4 2.</_>
        <_>
          8 7 8 4 2.</_></rects>
      <tilted>0</tilted></_>
    <_>
      <rects>
        <_>
          0 4 8 2 -1.</_>
        <_>
          0 5 8 1 2.</_></rects>
      <tilted>0</tilted></_>
    <_>
      <rects>
        <_>
          0 5 3 4 -1.</_>
        <_>
          1 5 1 4 3.</_></rects>
      <tilted>0</tilted></_>
    <_>
      <rects>
        <_>
          0 5 2 9 -1.</_>
        <_>
          1 5 1 9 2.</_></rects>
      <tilted>0</tilted></_>
    <_>
      <rects>
        <_>
          0 5 2 10 -1.</_>
        <_>
          1 5 1 10 2.</_></rects>
      <tilted>0</tilted></_>
    <_>
      <rects>
        <_>
          0 5 20 2 -1.</_>
        <_>
          0 6 20 1 2.</_></rects>
      <tilted>0</tilted></_>
    <_>
      <rects>
        <_>
          0 6 2 1 -1.</_>
        <_>
          1 6 1 1 2.</_></rects>
      <tilted>0</tilted></_>
    <_>
      <rects>
        <_>
          0 6 3 2 -1.</_>
        <_>
          1 6 1 2 3.</_></rects>
      <tilted>0</tilted></_>
    <_>
      <rects>
        <_>
          0 6 3 11 -1.</_>
        <_>
          1 6 1 11 3.</_></rects>
      <tilted>0</tilted></_>
    <_>
      <rects>
        <_>
          0 6 2 12 -1.</_>
        <_>
          0 10 2 4 3.</_></rects>
      <tilted>0</tilted></_>
    <_>
      <rects>
        <_>
          0 8 2 12 -1.</_>
        <_>
          0 8 1 6 2.</_>
        <_>
          1 14 1 6 2.</_></rects>
      <tilted>0</tilted></_>
    <_>
      <rects>
        <_>
          0 9 2 8 -1.</_>
        <_>
          0 9 1 4 2.</_>
        <_>
          1 13 1 4 2.</_></rects>
      <tilted>0</tilted></_>
    <_>
      <rects>
        <_>
          0 9 4 8 -1.</_>
        <_>
          0 9 2 4 2.</_>
        <_>
          2 13 2 4 2.</_></rects>
      <tilted>0</tilted></_>
    <_>
      <rects>
        <_>
          0 10 17 8 -1.</_>
        <_>
          0 14 17 4 2.</_></rects>
      <tilted>0</tilted></_>
    <_>
      <rects>
        <_>
          0 11 2 1 -1.</_>
        <_>
          1 11 1 1 2.</_></rects>
      <tilted>0</tilted></_>
    <_>
      <rects>
        <_>
          0 11 2 5 -1.</_>
        <_>
          1 11 1 5 2.</_></rects>
      <tilted>0</tilted></_>
    <_>
      <rects>
        <_>
          0 12 2 5 -1.</_>
        <_>
          1 12 1 5 2.</_></rects>
      <tilted>0</tilted></_>
    <_>
      <rects>
        <_>
          0 13 3 1 -1.</_>
        <_>
          1 13 1 1 3.</_></rects>
      <tilted>0</tilted></_>
    <_>
      <rects>
        <_>
          0 13 2 5 -1.</_>
        <_>
          1 13 1 5 2.</_></rects>
      <tilted>0</tilted></_>
    <_>
      <rects>
        <_>
          0 15 4 5 -1.</_>
        <_>
          2 15 2 5 2.</_></rects>
      <tilted>0</tilted></_>
    <_>
      <rects>
        <_>
          0 16 1 2 -1.</_>
        <_>
          0 17 1 1 2.</_></rects>
      <tilted>0</tilted></_>
    <_>
      <rects>
        <_>
          0 18 6 1 -1.</_>
        <_>
          3 18 3 1 2.</_></rects>
      <tilted>0</tilted></_>
    <_>
      <rects>
        <_>
          1 0 8 2 -1.</_>
        <_>
          5 0 4 2 2.</_></rects>
      <tilted>0</tilted></_>
    <_>
      <rects>
        <_>
          1 1 4 4 -1.</_>
        <_>
          1 1 2 2 2.</_>
        <_>
          3 3 2 2 2.</_></rects>
      <tilted>0</tilted></_>
    <_>
      <rects>
        <_>
          1 4 3 3 -1.</_>
        <_>
          2 4 1 3 3.</_></rects>
      <tilted>0</tilted></_>
    <_>
      <rects>
        <_>
          1 4 2 11 -1.</_>
        <_>
          2 4 1 11 2.</_></rects>
      <tilted>0</tilted></_>
    <_>
      <rects>
        <_>
          1 5 6 7 -1.</_>
        <_>
          3 5 2 7 3.</_></rects>
      <tilted>0</tilted></_>
    <_>
      <rects>
        <_>
          1 6 19 3 -1.</_>
        <_>
          1 7 19 1 3.</_></rects>
      <tilted>0</tilted></_>
    <_>
      <rects>
        <_>
          1 13 2 4 -1.</_>
        <_>
          1 13 1 2 2.</_>
        <_>
          2 15 1 2 2.</_></rects>
      <tilted>0</tilted></_>
    <_>
      <rects>
        <_>
          1 15 2 1 -1.</_>
        <_>
          2 15 1 1 2.</_></rects>
      <tilted>0</tilted></_>
    <_>
      <rects>
        <_>
          1 16 18 4 -1.</_>
        <_>
          10 16 9 4 2.</_></rects>
      <tilted>0</tilted></_>
    <_>
      <rects>
        <_>
          2 0 3 20 -1.</_>
        <_>
          2 10 3 10 2.</_></rects>
      <tilted>0</tilted></_>
    <_>
      <rects>
        <_>
          2 0 6 20 -1.</_>
        <_>
          2 10 6 10 2.</_></rects>
      <tilted>0</tilted></_>
    <_>
      <rects>
        <_>
          2 3 4 4 -1.</_>
        <_>
          2 3 2 2 2.</_>
        <_>
          4 5 2 2 2.</_></rects>
      <tilted>0</tilted></_>
    <_>
      <rects>
        <_>
          2 5 9 9 -1.</_>
        <_>
          2 8 9 3 3.</_></rects>
      <tilted>0</tilted></_>
    <_>
      <rects>
        <_>
          2 5 17 6 -1.</_>
        <_>
          2 7 17 2 3.</_></rects>
      <tilted>0</tilted></_>
    <_>
      <rects>
        <_>
          2 7 10 6 -1.</_>
        <_>
          2 9 10 2 3.</_></rects>
      <tilted>0</tilted></_>
    <_>
      <rects>
        <_>
          2 8 14 3 -1.</_>
        <_>
          2 9 14 1 3.</_></rects>
      <tilted>0</tilted></_>
    <_>
      <rects>
        <_>
          2 12 6 6 -1.</_>
        <_>
          2 12 3 3 2.</_>
        <_>
          5 15 3 3 2.</_></rects>
      <tilted>0</tilted></_>
    <_>
      <rects>
        <_>
          2 13 10 2 -1.</_>
        <_>
          2 13 5 1 2.</_>
        <_>
          7 14 5 1 2.</_></rects>
      <tilted>0</tilted></_>
    <_>
      <rects>
        <_>
          2 17 4 2 -1.</_>
        <_>
          2 17 2 1 2.</_>
        <_>
          4 18 2 1 2.</_></rects>
      <tilted>0</tilted></_>
    <_>
      <rects>
        <_>
          3 0 4 2 -1.</_>
        <_>
          3 0 2 1 2.</_>
        <_>
          5 1 2 1 2.</_></rects>
      <tilted>0</tilted></_>
    <_>
      <rects>
        <_>
          3 0 10 2 -1.</_>
        <_>
          3 1 10 1 2.</_></rects>
      <tilted>0</tilted></_>
    <_>
      <rects>
        <_>
          3 1 12 14 -1.</_>
        <_>
          3 8 12 7 2.</_></rects>
      <tilted>0</tilted></_>
    <_>
      <rects>
        <_>
          3 2 2 2 -1.</_>
        <_>
          3 2 1 1 2.</_>
        <_>
          4 3 1 1 2.</_></rects>
      <tilted>0</tilted></_>
    <_>
      <rects>
        <_>
          3 2 10 4 -1.</_>
        <_>
          3 2 5 2 2.</_>
        <_>
          8 4 5 2 2.</_></rects>
      <tilted>0</tilted></_>
    <_>
      <rects>
        <_>
          3 2 14 6 -1.</_>
        <_>
          3 2 7 3 2.</_>
        <_>
          10 5 7 3 2.</_></rects>
      <tilted>0</tilted></_>
    <_>
      <rects>
        <_>
          3 4 3 12 -1.</_>
        <_>
          3 8 3 4 3.</_></rects>
      <tilted>0</tilted></_>
    <_>
      <rects>
        <_>
          3 4 10 6 -1.</_>
        <_>
          3 6 10 2 3.</_></rects>
      <tilted>0</tilted></_>
    <_>
      <rects>
        <_>
          3 8 4 3 -1.</_>
        <_>
          3 9 4 1 3.</_></rects>
      <tilted>0</tilted></_>
    <_>
      <rects>
        <_>
          3 11 12 9 -1.</_>
        <_>
          3 14 12 3 3.</_></rects>
      <tilted>0</tilted></_>
    <_>
      <rects>
        <_>
          4 0 2 2 -1.</_>
        <_>
          4 1 2 1 2.</_></rects>
      <tilted>0</tilted></_>
    <_>
      <rects>
        <_>
          4 0 3 3 -1.</_>
        <_>
          4 1 3 1 3.</_></rects>
      <tilted>0</tilted></_>
    <_>
      <rects>
        <_>
          4 0 12 2 -1.</_>
        <_>
          4 1 12 1 2.</_></rects>
      <tilted>0</tilted></_>
    <_>
      <rects>
        <_>
          4 0 12 20 -1.</_>
        <_>
          4 10 12 10 2.</_></rects>
      <tilted>0</tilted></_>
    <_>
      <rects>
        <_>
          4 2 12 6 -1.</_>
        <_>
          4 2 6 3 2.</_>
        <_>
          10 5 6 3 2.</_></rects>
      <tilted>0</tilted></_>
    <_>
      <rects>
        <_>
          4 3 14 5 -1.</_>
        <_>
          11 3 7 5 2.</_></rects>
      <tilted>0</tilted></_>
    <_>
      <rects>
        <_>
          4 4 4 12 -1.</_>
        <_>
          4 8 4 4 3.</_></rects>
      <tilted>0</tilted></_>
    <_>
      <rects>
        <_>
          4 6 15 1 -1.</_>
        <_>
          9 6 5 1 3.</_></rects>
      <tilted>0</tilted></_>
    <_>
      <rects>
        <_>
          4 6 14 2 -1.</_>
        <_>
          4 7 14 1 2.</_></rects>
      <tilted>0</tilted></_>
    <_>
      <rects>
        <_>
          4 7 12 6 -1.</_>
        <_>
          4 7 6 3 2.</_>
        <_>
          10 10 6 3 2.</_></rects>
      <tilted>0</tilted></_>
    <_>
      <rects>
        <_>
          4 8 12 5 -1.</_>
        <_>
          10 8 6 5 2.</_></rects>
      <tilted>0</tilted></_>
    <_>
      <rects>
        <_>
          4 9 10 8 -1.</_>
        <_>
          4 9 5 4 2.</_>
        <_>
          9 13 5 4 2.</_></rects>
      <tilted>0</tilted></_>
    <_>
      <rects>
        <_>
          4 10 4 6 -1.</_>
        <_>
          4 12 4 2 3.</_></rects>
      <tilted>0</tilted></_>
    <_>
      <rects>
        <_>
          4 10 7 6 -1.</_>
        <_>
          4 12 7 2 3.</_></rects>
      <tilted>0</tilted></_>
    <_>
      <rects>
        <_>
          4 11 12 4 -1.</_>
        <_>
          4 11 6 2 2.</_>
        <_>
          10 13 6 2 2.</_></rects>
      <tilted>0</tilted></_>
    <_>
      <rects>
        <_>
          4 12 3 4 -1.</_>
        <_>
          5 12 1 4 3.</_></rects>
      <tilted>0</tilted></_>
    <_>
      <rects>
        <_>
          4 17 4 2 -1.</_>
        <_>
          4 17 2 1 2.</_>
        <_>
          6 18 2 1 2.</_></rects>
      <tilted>0</tilted></_>
    <_>
      <rects>
        <_>
          5 0 1 3 -1.</_>
        <_>
          5 1 1 1 3.</_></rects>
      <tilted>0</tilted></_>
    <_>
      <rects>
        <_>
          5 0 3 6 -1.</_>
        <_>
          5 2 3 2 3.</_></rects>
      <tilted>0</tilted></_>
    <_>
      <rects>
        <_>
          5 0 9 16 -1.</_>
        <_>
          8 0 3 16 3.</_></rects>
      <tilted>0</tilted></_>
    <_>
      <rects>
        <_>
          5 1 1 3 -1.</_>
        <_>
          5 2 1 1 3.</_></rects>
      <tilted>0</tilted></_>
    <_>
      <rects>
        <_>
          5 1 3 6 -1.</_>
        <_>
          6 1 1 6 3.</_></rects>
      <tilted>0</tilted></_>
    <_>
      <rects>
        <_>
          5 5 2 1 -1.</_>
        <_>
          6 5 1 1 2.</_></rects>
      <tilted>0</tilted></_>
    <_>
      <rects>
        <_>
          5 7 3 7 -1.</_>
        <_>
          6 7 1 7 3.</_></rects>
      <tilted>0</tilted></_>
    <_>
      <rects>
        <_>
          5 7 10 6 -1.</_>
        <_>
          5 7 5 3 2.</_>
        <_>
          10 10 5 3 2.</_></rects>
      <tilted>0</tilted></_>
    <_>
      <rects>
        <_>
          6 0 9 14 -1.</_>
        <_>
          6 7 9 7 2.</_></rects>
      <tilted>0</tilted></_>
    <_>
      <rects>
        <_>
          6 2 1 16 -1.</_>
        <_>
          6 10 1 8 2.</_></rects>
      <tilted>0</tilted></_>
    <_>
      <rects>
        <_>
          6 3 4 3 -1.</_>
        <_>
          6 4 4 1 3.</_></rects>
      <tilted>0</tilted></_>
    <_>
      <rects>
        <_>
          6 3 4 6 -1.</_>
        <_>
          6 5 4 2 3.</_></rects>
      <tilted>0</tilted></_>
    <_>
      <rects>
        <_>
          6 4 3 12 -1.</_>
        <_>
          7 4 1 12 3.</_></rects>
      <tilted>0</tilted></_>
    <_>
      <rects>
        <_>
          6 4 6 1 -1.</_>
        <_>
          8 4 2 1 3.</_></rects>
      <tilted>0</tilted></_>
    <_>
      <rects>
        <_>
          6 4 3 2 -1.</_>
        <_>
          6 5 3 1 2.</_></rects>
      <tilted>0</tilted></_>
    <_>
      <rects>
        <_>
          6 4 4 2 -1.</_>
        <_>
          6 5 4 1 2.</_></rects>
      <tilted>0</tilted></_>
    <_>
      <rects>
        <_>
          6 6 2 8 -1.</_>
        <_>
          7 6 1 8 2.</_></rects>
      <tilted>0</tilted></_>
    <_>
      <rects>
        <_>
          6 7 3 8 -1.</_>
        <_>
          7 7 1 8 3.</_></rects>
      <tilted>0</tilted></_>
    <_>
      <rects>
        <_>
          6 9 3 7 -1.</_>
        <_>
          7 9 1 7 3.</_></rects>
      <tilted>0</tilted></_>
    <_>
      <rects>
        <_>
          6 9 10 6 -1.</_>
        <_>
          6 9 5 3 2.</_>
        <_>
          11 12 5 3 2.</_></rects>
      <tilted>0</tilted></_>
    <_>
      <rects>
        <_>
          6 11 8 4 -1.</_>
        <_>
          6 11 4 2 2.</_>
        <_>
          10 13 4 2 2.</_></rects>
      <tilted>0</tilted></_>
    <_>
      <rects>
        <_>
          6 17 7 3 -1.</_>
        <_>
          6 18 7 1 3.</_></rects>
      <tilted>0</tilted></_>
    <_>
      <rects>
        <_>
          6 18 7 2 -1.</_>
        <_>
          6 19 7 1 2.</_></rects>
      <tilted>0</tilted></_>
    <_>
      <rects>
        <_>
          6 18 10 2 -1.</_>
        <_>
          6 19 10 1 2.</_></rects>
      <tilted>0</tilted></_>
    <_>
      <rects>
        <_>
          7 0 1 6 -1.</_>
        <_>
          7 2 1 2 3.</_></rects>
      <tilted>0</tilted></_>
    <_>
      <rects>
        <_>
          7 0 5 12 -1.</_>
        <_>
          7 4 5 4 3.</_></rects>
      <tilted>0</tilted></_>
    <_>
      <rects>
        <_>
          7 0 12 2 -1.</_>
        <_>
          13 0 6 2 2.</_></rects>
      <tilted>0</tilted></_>
    <_>
      <rects>
        <_>
          7 1 3 7 -1.</_>
        <_>
          8 1 1 7 3.</_></rects>
      <tilted>0</tilted></_>
    <_>
      <rects>
        <_>
          7 2 2 3 -1.</_>
        <_>
          7 3 2 1 3.</_></rects>
      <tilted>0</tilted></_>
    <_>
      <rects>
        <_>
          7 4 3 1 -1.</_>
        <_>
          8 4 1 1 3.</_></rects>
      <tilted>0</tilted></_>
    <_>
      <rects>
        <_>
          7 6 2 1 -1.</_>
        <_>
          8 6 1 1 2.</_></rects>
      <tilted>0</tilted></_>
    <_>
      <rects>
        <_>
          7 6 7 6 -1.</_>
        <_>
          7 8 7 2 3.</_></rects>
      <tilted>0</tilted></_>
    <_>
      <rects>
        <_>
          8 0 8 2 -1.</_>
        <_>
          8 0 4 1 2.</_>
        <_>
          12 1 4 1 2.</_></rects>
      <tilted>0</tilted></_>
    <_>
      <rects>
        <_>
          8 4 6 9 -1.</_>
        <_>
          10 4 2 9 3.</_></rects>
      <tilted>0</tilted></_>
    <_>
      <rects>
        <_>
          8 4 6 11 -1.</_>
        <_>
          10 4 2 11 3.</_></rects>
      <tilted>0</tilted></_>
    <_>
      <rects>
        <_>
          8 4 4 12 -1.</_>
        <_>
          8 8 4 4 3.</_></rects>
      <tilted>0</tilted></_>
    <_>
      <rects>
        <_>
          8 6 10 8 -1.</_>
        <_>
          8 6 5 4 2.</_>
        <_>
          13 10 5 4 2.</_></rects>
      <tilted>0</tilted></_>
    <_>
      <rects>
        <_>
          8 8 12 4 -1.</_>
        <_>
          12 8 4 4 3.</_></rects>
      <tilted>0</tilted></_>
    <_>
      <rects>
        <_>
          8 8 6 12 -1.</_>
        <_>
          8 14 6 6 2.</_></rects>
      <tilted>0</tilted></_>
    <_>
      <rects>
        <_>
          8 8 7 9 -1.</_>
        <_>
          8 11 7 3 3.</_></rects>
      <tilted>0</tilted></_>
    <_>
      <rects>
        <_>
          8 9 3 9 -1.</_>
        <_>
          8 12 3 3 3.</_></rects>
      <tilted>0</tilted></_>
    <_>
      <rects>
        <_>
          8 10 1 6 -1.</_>
        <_>
          8 12 1 2 3.</_></rects>
      <tilted>0</tilted></_>
    <_>
      <rects>
        <_>
          8 13 4 6 -1.</_>
        <_>
          8 15 4 2 3.</_></rects>
      <tilted>0</tilted></_>
    <_>
      <rects>
        <_>
          8 14 4 2 -1.</_>
        <_>
          8 14 2 1 2.</_>
        <_>
          10 15 2 1 2.</_></rects>
      <tilted>0</tilted></_>
    <_>
      <rects>
        <_>
          8 17 3 3 -1.</_>
        <_>
          8 18 3 1 3.</_></rects>
      <tilted>0</tilted></_>
    <_>
      <rects>
        <_>
          9 0 2 2 -1.</_>
        <_>
          9 1 2 1 2.</_></rects>
      <tilted>0</tilted></_>
    <_>
      <rects>
        <_>
          9 3 2 2 -1.</_>
        <_>
          9 3 1 1 2.</_>
        <_>
          10 4 1 1 2.</_></rects>
      <tilted>0</tilted></_>
    <_>
      <rects>
        <_>
          9 3 9 15 -1.</_>
        <_>
          9 8 9 5 3.</_></rects>
      <tilted>0</tilted></_>
    <_>
      <rects>
        <_>
          9 5 4 9 -1.</_>
        <_>
          9 8 4 3 3.</_></rects>
      <tilted>0</tilted></_>
    <_>
      <rects>
        <_>
          9 5 4 12 -1.</_>
        <_>
          9 9 4 4 3.</_></rects>
      <tilted>0</tilted></_>
    <_>
      <rects>
        <_>
          9 8 4 9 -1.</_>
        <_>
          9 11 4 3 3.</_></rects>
      <tilted>0</tilted></_>
    <_>
      <rects>
        <_>
          9 9 2 4 -1.</_>
        <_>
          9 9 1 2 2.</_>
        <_>
          10 11 1 2 2.</_></rects>
      <tilted>0</tilted></_>
    <_>
      <rects>
        <_>
          9 12 3 5 -1.</_>
        <_>
          10 12 1 5 3.</_></rects>
      <tilted>0</tilted></_>
    <_>
      <rects>
        <_>
          9 16 3 2 -1.</_>
        <_>
          10 16 1 2 3.</_></rects>
      <tilted>0</tilted></_>
    <_>
      <rects>
        <_>
          9 16 6 4 -1.</_>
        <_>
          9 18 6 2 2.</_></rects>
      <tilted>0</tilted></_>
    <_>
      <rects>
        <_>
          10 0 2 4 -1.</_>
        <_>
          11 0 1 4 2.</_></rects>
      <tilted>0</tilted></_>
    <_>
      <rects>
        <_>
          10 0 8 4 -1.</_>
        <_>
          10 0 4 2 2.</_>
        <_>
          14 2 4 2 2.</_></rects>
      <tilted>0</tilted></_>
    <_>
      <rects>
        <_>
          10 0 10 1 -1.</_>
        <_>
          15 0 5 1 2.</_></rects>
      <tilted>0</tilted></_>
    <_>
      <rects>
        <_>
          10 2 9 8 -1.</_>
        <_>
          13 2 3 8 3.</_></rects>
      <tilted>0</tilted></_>
    <_>
      <rects>
        <_>
          10 4 2 4 -1.</_>
        <_>
          10 4 1 2 2.</_>
        <_>
          11 6 1 2 2.</_></rects>
      <tilted>0</tilted></_>
    <_>
      <rects>
        <_>
          10 4 8 10 -1.</_>
        <_>
          10 4 4 5 2.</_>
        <_>
          14 9 4 5 2.</_></rects>
      <tilted>0</tilted></_>
    <_>
      <rects>
        <_>
          10 6 4 9 -1.</_>
        <_>
          10 9 4 3 3.</_></rects>
      <tilted>0</tilted></_>
    <_>
      <rects>
        <_>
          10 7 3 8 -1.</_>
        <_>
          10 11 3 4 2.</_></rects>
      <tilted>0</tilted></_>
    <_>
      <rects>
        <_>
          10 7 9 5 -1.</_>
        <_>
          13 7 3 5 3.</_></rects>
      <tilted>0</tilted></_>
    <_>
      <rects>
        <_>
          10 9 7 8 -1.</_>
        <_>
          10 13 7 4 2.</_></rects>
      <tilted>0</tilted></_>
    <_>
      <rects>
        <_>
          10 10 6 8 -1.</_>
        <_>
          10 10 3 4 2.</_>
        <_>
          13 14 3 4 2.</_></rects>
      <tilted>0</tilted></_>
    <_>
      <rects>
        <_>
          10 12 4 4 -1.</_>
        <_>
          10 14 4 2 2.</_></rects>
      <tilted>0</tilted></_>
    <_>
      <rects>
        <_>
          10 14 3 2 -1.</_>
        <_>
          11 14 1 2 3.</_></rects>
      <tilted>0</tilted></_>
    <_>
      <rects>
        <_>
          11 0 9 4 -1.</_>
        <_>
          14 0 3 4 3.</_></rects>
      <tilted>0</tilted></_>
    <_>
      <rects>
        <_>
          11 3 6 12 -1.</_>
        <_>
          11 3 3 6 2.</_>
        <_>
          14 9 3 6 2.</_></rects>
      <tilted>0</tilted></_>
    <_>
      <rects>
        <_>
          11 3 4 15 -1.</_>
        <_>
          11 8 4 5 3.</_></rects>
      <tilted>0</tilted></_>
    <_>
      <rects>
        <_>
          11 4 9 6 -1.</_>
        <_>
          14 4 3 6 3.</_></rects>
      <tilted>0</tilted></_>
    <_>
      <rects>
        <_>
          11 4 9 7 -1.</_>
        <_>
          14 4 3 7 3.</_></rects>
      <tilted>0</tilted></_>
    <_>
      <rects>
        <_>
          11 8 3 8 -1.</_>
        <_>
          11 12 3 4 2.</_></rects>
      <tilted>0</tilted></_>
    <_>
      <rects>
        <_>
          11 9 3 7 -1.</_>
        <_>
          12 9 1 7 3.</_></rects>
      <tilted>0</tilted></_>
    <_>
      <rects>
        <_>
          11 11 3 8 -1.</_>
        <_>
          12 11 1 8 3.</_></rects>
      <tilted>0</tilted></_>
    <_>
      <rects>
        <_>
          11 18 8 2 -1.</_>
        <_>
          11 18 4 1 2.</_>
        <_>
          15 19 4 1 2.</_></rects>
      <tilted>0</tilted></_>
    <_>
      <rects>
        <_>
          12 0 1 3 -1.</_>
        <_>
          12 1 1 1 3.</_></rects>
      <tilted>0</tilted></_>
    <_>
      <rects>
        <_>
          12 1 4 2 -1.</_>
        <_>
          12 1 2 1 2.</_>
        <_>
          14 2 2 1 2.</_></rects>
      <tilted>0</tilted></_>
    <_>
      <rects>
        <_>
          12 1 4 15 -1.</_>
        <_>
          12 6 4 5 3.</_></rects>
      <tilted>0</tilted></_>
    <_>
      <rects>
        <_>
          13 0 4 15 -1.</_>
        <_>
          13 5 4 5 3.</_></rects>
      <tilted>0</tilted></_>
    <_>
      <rects>
        <_>
          13 1 4 2 -1.</_>
        <_>
          13 1 2 1 2.</_>
        <_>
          15 2 2 1 2.</_></rects>
      <tilted>0</tilted></_>
    <_>
      <rects>
        <_>
          13 5 2 14 -1.</_>
        <_>
          13 12 2 7 2.</_></rects>
      <tilted>0</tilted></_>
    <_>
      <rects>
        <_>
          13 10 2 1 -1.</_>
        <_>
          14 10 1 1 2.</_></rects>
      <tilted>0</tilted></_>
    <_>
      <rects>
        <_>
          13 14 1 6 -1.</_>
        <_>
          13 17 1 3 2.</_></rects>
      <tilted>0</tilted></_>
    <_>
      <rects>
        <_>
          13 15 6 3 -1.</_>
        <_>
          15 15 2 3 3.</_></rects>
      <tilted>0</tilted></_>
    <_>
      <rects>
        <_>
          13 17 4 2 -1.</_>
        <_>
          13 17 2 1 2.</_>
        <_>
          15 18 2 1 2.</_></rects>
      <tilted>0</tilted></_>
    <_>
      <rects>
        <_>
          13 18 3 2 -1.</_>
        <_>
          13 19 3 1 2.</_></rects>
      <tilted>0</tilted></_>
    <_>
      <rects>
        <_>
          14 1 6 18 -1.</_>
        <_>
          17 1 3 18 2.</_></rects>
      <tilted>0</tilted></_>
    <_>
      <rects>
        <_>
          14 2 2 15 -1.</_>
        <_>
          14 7 2 5 3.</_></rects>
      <tilted>0</tilted></_>
    <_>
      <rects>
        <_>
          14 9 4 3 -1.</_>
        <_>
          14 10 4 1 3.</_></rects>
      <tilted>0</tilted></_>
    <_>
      <rects>
        <_>
          14 17 2 2 -1.</_>
        <_>
          14 17 1 1 2.</_>
        <_>
          15 18 1 1 2.</_></rects>
      <tilted>0</tilted></_>
    <_>
      <rects>
        <_>
          15 8 4 8 -1.</_>
        <_>
          15 8 2 4 2.</_>
        <_>
          17 12 2 4 2.</_></rects>
      <tilted>0</tilted></_>
    <_>
      <rects>
        <_>
          16 0 4 5 -1.</_>
        <_>
          18 0 2 5 2.</_></rects>
      <tilted>0</tilted></_>
    <_>
      <rects>
        <_>
          16 12 2 4 -1.</_>
        <_>
          16 12 1 2 2.</_>
        <_>
          17 14 1 2 2.</_></rects>
      <tilted>0</tilted></_>
    <_>
      <rects>
        <_>
          17 6 3 5 -1.</_>
        <_>
          18 6 1 5 3.</_></rects>
      <tilted>0</tilted></_>
    <_>
      <rects>
        <_>
          17 7 3 7 -1.</_>
        <_>
          18 7 1 7 3.</_></rects>
      <tilted>0</tilted></_>
    <_>
      <rects>
        <_>
          17 8 3 2 -1.</_>
        <_>
          18 8 1 2 3.</_></rects>
      <tilted>0</tilted></_>
    <_>
      <rects>
        <_>
          17 11 2 2 -1.</_>
        <_>
          18 11 1 2 2.</_></rects>
      <tilted>0</tilted></_>
    <_>
      <rects>
        <_>
          18 4 2 8 -1.</_>
        <_>
          18 4 1 4 2.</_>
        <_>
          19 8 1 4 2.</_></rects>
      <tilted>0</tilted></_>
    <_>
      <rects>
        <_>
          18 6 2 8 -1.</_>
        <_>
          19 6 1 8 2.</_></rects>
      <tilted>0</tilted></_>
    <_>
      <rects>
        <_>
          18 12 2 4 -1.</_>
        <_>
          19 12 1 4 2.</_></rects>
      <tilted>0</tilted></_></features></cascade>
</opencv_storage>
